tree
version=v3
num_class=1
num_tree_per_iteration=1
label_index=0
max_feature_idx=1
objective=regression
feature_names=price region
monotone_constraints=-1 0
feature_infos=[0.46000000000000002:2.2200000000000002] -1:0:1:2:3:4:5:6:7:8:9:10:11:12:13:14:15:16:17
tree_sizes=815 646 827 644 828 571 830 571 828 648 828 648 826 573 823 648 822 571 828 647 830 648 828 572 831 644 828 571 828 571 829 719 826 644 831 646 829 721 829 642 828 644 826 717 827 716 825 716 827 647 829 715 829 712 824 715 825 717 828 717 826 716 826 716 825 715 826 717 825 720 826 718 731 719 730 716 825 716 827 720 828 717 818 714 825 718 823 715 822 718 823 715 824 787 827 713 822 714 820 713

Tree=0
num_leaves=8
num_cat=0
split_feature=0 0 0 0 0 0 0
split_gain=8.91914e+13 9.4675e+12 6.80918e+12 1.56992e+12 1.40606e+12 1.30718e+12 5.14616e+11
threshold=0.91500000000000015 0.72500000000000009 1.0350000000000004 0.60500000000000009 0.84500000000000008 1.2050000000000003 0.95500000000000007
decision_type=2 2 2 2 2 2 2
left_child=1 3 6 -1 -3 -4 -2
right_child=2 4 5 -5 -6 -7 -8
leaf_value=701947.53797338763 684226.56587676075 690474.13193980674 679126.38073323586 695603.88824524998 687078.98032601585 677386.72050358646 681797.66036835767
leaf_weight=42 100 278 580 136 157 917 254
leaf_count=42 100 278 580 136 157 917 254
internal_value=682073 691529 678907 697101 689249 678061 682484
internal_weight=0 613 1851 178 435 1497 354
internal_count=2464 613 1851 178 435 1497 354
is_linear=0
shrinkage=1


Tree=1
num_leaves=6
num_cat=5
split_feature=1 1 1 1 1
split_gain=1.04585e+14 3.17314e+13 6.28707e+12 8.25003e+11 2.15608e+11
threshold=0 1 2 3 4
decision_type=1 1 1 1 1
left_child=1 -1 -2 -4 -3
right_child=2 4 3 -5 -6
leaf_value=12783.645904610512 -7738.4694072338625 3939.3674973462994 -2061.7895731958401 -4301.474025571687 2273.5374291654348
leaf_weight=412 549 134 271 547 551
leaf_count=412 549 134 271 547 551
internal_value=0 6537.87 -5302.17 -3593.34 2651.4
internal_weight=0 1097 1367 818 685
internal_count=2464 1097 1367 818 685
cat_boundaries=0 1 2 3 4 5
cat_threshold=148602 1104 70400 34816 131072
is_linear=0
shrinkage=0.0286803


Tree=2
num_leaves=8
num_cat=0
split_feature=0 0 0 0 0 0 0
split_gain=8.06854e+13 8.62195e+12 6.22583e+12 1.45889e+12 1.25123e+12 1.203e+12 4.58455e+11
threshold=0.91500000000000015 0.72500000000000009 1.0350000000000004 0.60500000000000009 0.84500000000000008 1.2050000000000003 0.95500000000000007
decision_type=2 2 2 2 2 2 2
left_child=1 3 6 -1 -3 -4 -2
right_child=2 4 5 -5 -6 -7 -8
leaf_value=18983.571840257977 2054.2201904506883 7974.1003374192405 -2797.765548225826 12868.363163205839 4771.3291858090324 -4466.6599699785875 -238.32115161373346
leaf_weight=42 100 278 580 136 157 917 254
leaf_count=42 100 278 580 136 157 917 254
internal_value=0 8993.97 -3011.21 14311.3 6818.16 -3820.06 409.289
internal_weight=0 613 1851 178 435 1497 354
internal_count=2464 613 1851 178 435 1497 354
is_linear=0
shrinkage=0.0286803


Tree=3
num_leaves=6
num_cat=5
split_feature=1 1 1 1 1
split_gain=9.15748e+13 2.8282e+13 6.02297e+12 7.9711e+11 2.61061e+09
threshold=0 1 2 3 4
decision_type=1 1 1 1 1
left_child=1 -1 -2 -4 -3
right_child=2 4 3 -5 -6
leaf_value=12189.845686434235 -7503.7143346287794 3312.837542350263 -1888.9978305077677 -4088.2455492894742 2265.1738419056696
leaf_weight=393 529 138 264 545 558
leaf_count=393 529 138 264 545 558
internal_value=0 6086.83 -5067.55 -3402.4 2516.88
internal_weight=0 1089 1338 809 696
internal_count=2427 1089 1338 809 696
cat_boundaries=0 1 2 3 4 5
cat_threshold=148602 1104 70400 34816 131072
is_linear=0
shrinkage=0.0286803


Tree=4
num_leaves=8
num_cat=0
split_feature=0 0 0 0 0 0 0
split_gain=7.07177e+13 8.18987e+12 4.41413e+12 1.22864e+12 1.2179e+12 1.20888e+12 3.62429e+11
threshold=0.91500000000000015 0.70500000000000007 1.0550000000000004 0.77500000000000013 1.3550000000000002 0.60500000000000009 1.0150000000000003
decision_type=2 2 2 2 2 2 2
left_child=1 5 6 -3 -4 -1 -2
right_child=2 3 4 -5 -6 -7 -8
leaf_value=18542.530915016225 325.09381880339095 8736.3071415015202 -2947.2644105935588 5568.9169737728398 -4666.6126588190582 12752.804623551268 -1574.5774811891947
leaf_weight=42 287 149 863 311 558 101 116
leaf_count=42 287 149 863 311 558 101 116
internal_value=0 8458.48 -2871.06 6594.88 -3622.42 14453.3 -221.71
internal_weight=0 603 1824 460 1421 143 403
internal_count=2427 603 1824 460 1421 143 403
is_linear=0
shrinkage=0.0286803


Tree=5
num_leaves=5
num_cat=4
split_feature=1 1 1 1
split_gain=8.47742e+13 2.53521e+13 5.52089e+12 7.29186e+11
threshold=0 1 2 3
decision_type=1 1 1 1
left_child=1 -1 -2 -4
right_child=2 -3 3 -5
leaf_value=11638.413979944367 -7207.4654885545242 2475.4825692459626 -4612.9831586619457 -2523.8446822558149
leaf_weight=393 529 696 274 535
leaf_count=393 529 696 274 535
internal_value=0 5858.03 -4874.19 -3279.1
internal_weight=0 1089 1338 809
internal_count=2427 1089 1338 809
cat_boundaries=0 1 2 3 4
cat_threshold=148602 1104 70400 8193
is_linear=0
shrinkage=0.0286803


Tree=6
num_leaves=8
num_cat=0
split_feature=0 0 0 0 0 0 0
split_gain=6.80667e+13 8.38927e+12 4.6321e+12 1.19341e+12 1.14137e+12 8.74887e+11 5.84111e+11
threshold=0.91500000000000015 0.72500000000000009 1.0550000000000004 1.2450000000000003 0.60500000000000009 0.84500000000000008 0.96500000000000008
decision_type=2 2 2 2 2 2 2
left_child=1 4 6 -4 -1 -3 -2
right_child=2 5 3 -5 -6 -7 -8
leaf_value=17522.179489092745 1614.4190022541068 7180.3622062581126 -2621.9315922476972 -4278.2873757846592 12267.813917697829 4519.9038476220521 -751.59639263402062
leaf_weight=47 123 282 673 764 123 159 284
leaf_count=47 123 282 673 764 123 159 284
internal_value=0 8307.71 -2737.55 -3502.55 13720.5 6221.15 -36.5598
internal_weight=0 611 1844 1437 170 441 407
internal_count=2455 611 1844 1437 170 441 407
is_linear=0
shrinkage=0.0286803


Tree=7
num_leaves=5
num_cat=4
split_feature=1 1 1 1
split_gain=8.40837e+13 2.42903e+13 5.02461e+12 6.64219e+11
threshold=0 1 2 3
decision_type=1 1 1 1
left_child=1 -1 -2 -4
right_child=2 -3 3 -5
leaf_value=11502.126761818034 -6858.6685371302756 2546.8654692649175 -4436.0980827081066 -2454.6299185300668
leaf_weight=404 548 675 278 550
leaf_count=404 548 675 278 550
internal_value=0 5974.73 -4674.84 -3164.9
internal_weight=0 1079 1376 828
internal_count=2455 1079 1376 828
cat_boundaries=0 1 2 3 4
cat_threshold=148602 1104 70400 8193
is_linear=0
shrinkage=0.0286803


Tree=8
num_leaves=8
num_cat=0
split_feature=0 0 0 0 0 0 0
split_gain=6.17087e+13 7.62434e+12 4.255e+12 1.10652e+12 1.05535e+12 7.9393e+11 5.26512e+11
threshold=0.91500000000000015 0.72500000000000009 1.0550000000000004 1.2450000000000003 0.60500000000000009 0.77500000000000013 0.96500000000000008
decision_type=2 2 2 2 2 2 2
left_child=1 4 6 -4 -1 -3 -2
right_child=2 5 3 -5 -6 -7 -8
leaf_value=16725.867318933666 1549.5533587516211 7946.0184042284345 -2491.8726088542421 -4086.7874866630495 11673.387364937551 5189.7016118471392 -696.77741365599104
leaf_weight=47 123 117 673 764 123 324 284
leaf_count=47 123 117 673 764 123 324 284
internal_value=0 7910.13 -2606.63 -3339.83 13070.2 5920.97 -17.9109
internal_weight=0 611 1844 1437 170 441 407
internal_count=2455 611 1844 1437 170 441 407
is_linear=0
shrinkage=0.0286803


Tree=9
num_leaves=6
num_cat=5
split_feature=1 1 1 1 1
split_gain=7.58464e+13 2.09502e+13 5.08912e+12 3.51637e+11 1.00941e+11
threshold=0 1 2 3 4
decision_type=1 1 1 1 1
left_child=1 -1 4 -4 -2
right_child=2 -3 3 -5 -6
leaf_value=10799.251102099854 -1591.3964674371928 2475.3534162749538 -4318.7528293152118 -6613.4200380021548 -2724.5179756498837
leaf_weight=403 268 677 272 554 273
leaf_count=403 268 677 272 554 273
internal_value=0 5651.98 -4474.44 -5918.49 -2202.26
internal_weight=0 1080 1367 826 541
internal_count=2447 1080 1367 826 541
cat_boundaries=0 1 2 3 4 5
cat_threshold=148602 1104 34948 8193 34816
is_linear=0
shrinkage=0.0286803


Tree=10
num_leaves=8
num_cat=0
split_feature=0 0 0 0 0 0 0
split_gain=5.4768e+13 6.87749e+12 3.39023e+12 1.22737e+12 1.08697e+12 1.0743e+12 3.67052e+11
threshold=0.92500000000000016 0.72500000000000009 1.1650000000000003 0.84500000000000008 1.0150000000000003 0.60500000000000009 1.6950000000000001
decision_type=2 2 2 2 2 2 2
left_child=1 5 4 -3 -2 -1 -4
right_child=2 3 6 -5 -6 -7 -8
leaf_value=15754.955982061125 358.21655846052636 6559.7589337116779 -3431.1519726964448 3554.6835802955966 -1908.3620624764217 10665.261476604188 -5117.416368250334
leaf_weight=46 269 278 922 187 493 132 120
leaf_count=46 269 278 922 187 493 132 120
internal_value=0 7186.44 -2562.13 5351.27 -1108.22 11980.6 -3625.35
internal_weight=0 643 1804 465 762 178 1042
internal_count=2447 643 1804 465 762 178 1042
is_linear=0
shrinkage=0.0286803


Tree=11
num_leaves=6
num_cat=5
split_feature=1 1 1 1 1
split_gain=7.02259e+13 1.87722e+13 4.77701e+12 2.67911e+11 7.43777e+10
threshold=0 1 2 3 4
decision_type=1 1 1 1 1
left_child=1 -1 4 -4 -2
right_child=2 -3 3 -5 -6
leaf_value=10312.81164548597 -1546.7029033140816 2428.7821237293019 -4201.5660823426406 -6354.2558431561683 -2580.5579023554155
leaf_weight=403 268 677 272 554 273
leaf_count=403 268 677 272 554 273
internal_value=0 5438.32 -4305.68 -5704.12 -2105.77
internal_weight=0 1080 1367 826 541
internal_count=2447 1080 1367 826 541
cat_boundaries=0 1 2 3 4 5
cat_threshold=148602 1104 34948 8193 34816
is_linear=0
shrinkage=0.0286803


Tree=12
num_leaves=8
num_cat=0
split_feature=0 0 0 0 0 0 0
split_gain=4.9291e+13 5.92152e+12 3.87045e+12 8.33499e+11 7.55444e+11 7.34966e+11 5.68162e+11
threshold=0.91500000000000015 0.72500000000000009 1.0550000000000004 1.3750000000000002 0.77500000000000013 0.60500000000000009 0.95500000000000007
decision_type=2 2 2 2 2 2 2
left_child=1 5 6 -4 -3 -1 -2
right_child=2 4 3 -5 -6 -7 -8
leaf_value=15012.926261998567 2032.3085054510532 7276.8562469441076 -2527.4956018948919 -3970.1488368893497 4605.0441210017188 10596.419282934956 -487.98051030105415
leaf_weight=41 96 120 890 523 317 127 315
leaf_count=41 96 120 890 523 317 127 315
internal_value=0 7098.01 -2348.94 -3061.47 5338.72 11674.3 100.7
internal_weight=0 605 1824 1413 437 168 411
internal_count=2429 605 1824 1413 437 168 411
is_linear=0
shrinkage=0.0286803


Tree=13
num_leaves=5
num_cat=4
split_feature=1 1 1 1
split_gain=6.50616e+13 1.59464e+13 4.32748e+12 1.10495e+11
threshold=0 1 2 3
decision_type=1 1 1 1
left_child=1 -1 -2 -4
right_child=2 -3 3 -5
leaf_value=9767.6269853264857 -2071.7027659327246 2462.3916316937916 -4145.3936386920095 -6084.9772989879857
leaf_weight=401 545 670 268 545
leaf_count=401 545 670 268 545
internal_value=0 5262.65 -4151.59 -5503.74
internal_weight=0 1071 1358 813
internal_count=2429 1071 1358 813
cat_boundaries=0 1 2 3 4
cat_threshold=148602 1104 34948 8193
is_linear=0
shrinkage=0.0286803


Tree=14
num_leaves=8
num_cat=0
split_feature=0 0 0 0 0 0 0
split_gain=4.46427e+13 5.37685e+12 3.5563e+12 7.81882e+11 6.81995e+11 6.73983e+11 5.12144e+11
threshold=0.91500000000000015 0.72500000000000009 1.0550000000000004 1.3750000000000002 0.60500000000000009 0.77500000000000013 0.95500000000000007
decision_type=2 2 2 2 2 2 2
left_child=1 4 6 -4 -1 -3 -2
right_child=2 5 3 -5 -6 -7 -8
leaf_value=14331.803336146331 1946.55597472728 6909.2281065407215 -2401.3073342442999 -3798.5765356195748 10077.429099366927 4385.5772410698037 -446.26492111420384
leaf_weight=41 96 120 890 523 127 317 315
leaf_count=41 96 120 890 523 127 317 315
internal_value=0 6755 -2235.48 -2918.48 11115.7 5078.57 112.642
internal_weight=0 605 1824 1413 168 437 411
internal_count=2429 605 1824 1413 168 437 411
is_linear=0
shrinkage=0.0286803


Tree=15
num_leaves=6
num_cat=5
split_feature=1 1 1 1 1
split_gain=6.12411e+13 1.5668e+13 4.09421e+12 1.06634e+11 5.95422e+08
threshold=0 1 2 3 4
decision_type=1 1 1 1 1
left_child=1 -1 4 -4 -2
right_child=2 -3 3 -5 -6
leaf_value=9385.4077913296151 -1574.8315050794056 2267.0263210211097 -4038.9181934264025 -5899.0378284987873 -2327.3590743323998
leaf_weight=419 269 679 278 542 274
leaf_count=419 269 679 278 542 274
internal_value=0 5043.61 -4020.27 -5324.67 -1989.78
internal_weight=0 1098 1363 820 543
internal_count=2461 1098 1363 820 543
cat_boundaries=0 1 2 3 4 5
cat_threshold=148602 1104 34948 8193 34816
is_linear=0
shrinkage=0.0286803


Tree=16
num_leaves=8
num_cat=0
split_feature=0 0 0 0 0 0 0
split_gain=4.09514e+13 5.39817e+12 2.97634e+12 9.01662e+11 7.48128e+11 6.56122e+11 2.01082e+11
threshold=0.92500000000000016 0.70500000000000007 1.0350000000000004 0.84500000000000008 1.2050000000000003 0.60500000000000009 0.95500000000000007
decision_type=2 2 2 2 2 2 2
left_child=1 5 6 -3 -4 -1 -2
right_child=2 3 4 -5 -6 -7 -8
leaf_value=13840.010871646837 1599.878321997762 5798.0232083647279 -1911.6600165798409 3269.0881052986042 -3223.6181645133688 9761.2603563038501 -77.125969239918859
leaf_weight=49 77 308 591 186 905 96 249
leaf_count=49 77 308 591 186 905 96 249
internal_value=0 6274 -2164.2 4845.83 -2705.32 11139.6 318.976
internal_weight=0 639 1822 494 1496 145 326
internal_count=2461 639 1822 494 1496 145 326
is_linear=0
shrinkage=0.0286803


Tree=17
num_leaves=5
num_cat=4
split_feature=1 1 1 1
split_gain=5.67217e+13 1.40245e+13 3.83956e+12 5.83557e+10
threshold=0 1 2 3
decision_type=1 1 1 1
left_child=1 -1 -2 -4
right_child=2 -3 3 -5
leaf_value=8962.929514592648 -1904.7076177785423 2223.8312485484189 -3926.065282955964 -5669.0083707469903
leaf_weight=419 543 679 278 542
leaf_count=419 543 679 278 542
internal_value=0 4853.17 -3869.85 -5132.53
internal_weight=0 1098 1363 820
internal_count=2461 1098 1363 820
cat_boundaries=0 1 2 3 4
cat_threshold=148602 1104 34948 8193
is_linear=0
shrinkage=0.0286803


Tree=18
num_leaves=8
num_cat=0
split_feature=0 0 0 0 0 0 0
split_gain=3.73984e+13 4.41248e+12 2.19908e+12 1.14631e+12 6.8798e+11 6.49587e+11 4.3376e+11
threshold=0.92500000000000016 0.74500000000000011 1.1650000000000003 0.60500000000000009 0.84500000000000008 1.0150000000000003 1.8150000000000002
decision_type=2 2 2 2 2 2 2
left_child=1 3 5 -1 -3 -2 -4
right_child=2 4 6 -5 -6 -7 -8
leaf_value=13314.12838489969 137.57143971201046 5182.7172986013165 -2847.1932089281818 8150.0036351138579 2831.2713667684848 -1603.5870390733635 -5558.0112424614827
leaf_weight=44 282 239 1012 180 179 470 51
leaf_count=44 282 239 1012 180 179 470 51
internal_value=0 5916.34 -2137.58 9164.39 4175.76 -950.653 -2977.25
internal_weight=0 642 1815 224 418 752 1063
internal_count=2457 642 1815 224 418 752 1063
is_linear=0
shrinkage=0.0286803


Tree=19
num_leaves=6
num_cat=5
split_feature=1 1 1 1 1
split_gain=5.16095e+13 1.19845e+13 3.47029e+12 1.5359e+10 1.19865e+09
threshold=0 1 2 3 4
decision_type=1 1 1 1 1
left_child=1 -1 4 -4 -2
right_child=2 -3 3 -5 -6
leaf_value=8451.9118483798356 -1476.4539604604413 2179.518385041431 -4083.273062645796 -5613.4149066537293 -2181.1380897546378
leaf_weight=411 282 679 407 422 256
leaf_count=411 282 679 407 422 256
internal_value=0 4599.95 -3732.05 -4919.81 -1845.45
internal_weight=0 1090 1367 829 538
internal_count=2457 1090 1367 829 538
cat_boundaries=0 1 2 3 4 5
cat_threshold=148602 1104 34948 12289 34816
is_linear=0
shrinkage=0.0286803


Tree=20
num_leaves=8
num_cat=0
split_feature=0 0 0 0 0 0 0
split_gain=3.38389e+13 4.00861e+12 2.04089e+12 1.06226e+12 6.1574e+11 5.96631e+11 4.21149e+11
threshold=0.92500000000000016 0.74500000000000011 1.1650000000000003 0.60500000000000009 0.84500000000000008 1.0150000000000003 1.8150000000000002
decision_type=2 2 2 2 2 2 2
left_child=1 3 5 -1 -3 -2 -4
right_child=2 4 6 -5 -6 -7 -8
leaf_value=12718.235658047886 152.98781582210961 4921.3067661091545 -2714.1265707783227 7747.0426279407347 2696.7392744894769 -1515.6908150056884 -5385.2466459564102
leaf_weight=44 282 239 1012 180 179 470 51
leaf_count=44 282 239 1012 180 179 470 51
internal_value=0 5627.69 -2033.38 8723.53 3968.68 -889.936 -2842.28
internal_weight=0 642 1815 224 418 752 1063
internal_count=2457 642 1815 224 418 752 1063
is_linear=0
shrinkage=0.0286803


Tree=21
num_leaves=6
num_cat=5
split_feature=1 1 1 1 1
split_gain=4.76946e+13 1.01182e+13 3.71154e+12 7.96554e+10 6.2519e+08
threshold=0 1 2 3 4
decision_type=1 1 1 1 1
left_child=1 -1 4 -4 -2
right_child=2 -3 3 -5 -6
leaf_value=8007.3551947272381 -1290.5378715761317 2210.9526727584507 -3609.2973874380637 -5275.3739200374494 -1909.7756559335476
leaf_weight=409 270 672 271 562 269
leaf_count=409 270 672 271 562 269
internal_value=0 4457.33 -3564.33 -4782.59 -1628.74
internal_weight=0 1081 1372 833 539
internal_count=2453 1081 1372 833 539
cat_boundaries=0 1 2 3 4 5
cat_threshold=148602 1104 34948 8193 34816
is_linear=0
shrinkage=0.0286803


Tree=22
num_leaves=8
num_cat=0
split_feature=0 0 0 0 0 0 0
split_gain=3.06726e+13 3.7071e+12 2.55462e+12 7.53122e+11 5.26357e+11 3.58582e+11 2.68172e+11
threshold=0.91500000000000015 0.70500000000000007 1.1650000000000003 1.0150000000000003 0.77500000000000013 1.7150000000000001 0.60500000000000009
decision_type=2 2 2 2 2 2 2
left_child=1 6 3 -2 -3 -4 -1
right_child=2 4 5 -5 -6 -7 -8
leaf_value=11533.317224670276 486.31432897803387 5713.7402443078236 -2621.1316829030134 -1338.5569057426419 3675.1047351132715 -4358.6024115556002 8815.7309170682165
leaf_weight=44 301 154 943 487 322 109 93
leaf_count=44 301 154 943 487 322 109 93
internal_value=0 5531.21 -1876.26 -641.493 4334.66 -2801.15 9688.53
internal_weight=0 613 1840 788 476 1052 137
internal_count=2453 613 1840 788 476 1052 137
is_linear=0
shrinkage=0.0286803


Tree=23
num_leaves=5
num_cat=4
split_feature=1 1 1 1
split_gain=4.42309e+13 9.02544e+12 3.47488e+12 4.47282e+10
threshold=0 1 2 3
decision_type=1 1 1 1
left_child=1 -1 -2 -4
right_child=2 -3 3 -5
leaf_value=7647.884787824145 -1560.1178564282691 2168.4645153581614 -3812.8213437452168 -5284.814137089531
leaf_weight=409 539 672 412 421
leaf_count=409 539 672 412 421
internal_value=0 4292.72 -3432.18 -4610.64
internal_weight=0 1081 1372 833
internal_count=2453 1081 1372 833
cat_boundaries=0 1 2 3 4
cat_threshold=148602 1104 34948 12289
is_linear=0
shrinkage=0.0286803


Tree=24
num_leaves=8
num_cat=0
split_feature=0 0 0 0 0 0 0
split_gain=2.73203e+13 3.80176e+12 1.98758e+12 5.95296e+11 4.96395e+11 4.42468e+11 1.69338e+11
threshold=0.92500000000000016 0.70500000000000007 1.0550000000000004 1.2050000000000003 0.60500000000000009 0.84500000000000008 0.96500000000000008
decision_type=2 2 2 2 2 2 2
left_child=1 4 6 -4 -1 -3 -2
right_child=2 5 3 -5 -6 -7 -8
leaf_value=11710.736561742515 965.00657014429237 4516.6621351674858 -1539.3477273182382 -2752.6198020768966 8047.1562957519509 2737.2713275720093 -368.58797586219981
leaf_weight=43 108 315 527 902 104 181 285
leaf_count=43 108 315 527 902 104 181 285
internal_value=0 5067.9 -1808.41 -2305.18 9118.82 3867.33 -2.10397
internal_weight=0 643 1822 1429 147 496 393
internal_count=2465 643 1822 1429 147 496 393
is_linear=0
shrinkage=0.0286803


Tree=25
num_leaves=6
num_cat=5
split_feature=1 1 1 1 1
split_gain=4.06957e+13 8.78336e+12 2.99768e+12 4.73301e+10 3.04507e+10
threshold=0 1 2 3 4
decision_type=1 1 1 1 1
left_child=1 -1 -2 -4 -3
right_child=2 4 3 -5 -6
leaf_value=7395.1600303430305 -1576.336036245774 2321.8498923885695 -3636.6481751511933 -5063.3560279135309 1531.0531117375094
leaf_weight=410 545 406 404 419 281
leaf_count=410 545 406 404 419 281
internal_value=0 4080.75 -3303.79 -4415.07 2025
internal_weight=0 1097 1368 823 687
internal_count=2465 1097 1368 823 687
cat_boundaries=0 1 2 3 4 5
cat_threshold=148602 1104 34948 12289 16394
is_linear=0
shrinkage=0.0286803


Tree=26
num_leaves=8
num_cat=0
split_feature=0 0 0 0 0 0 0
split_gain=2.47522e+13 3.46667e+12 1.83755e+12 5.55985e+11 4.59059e+11 3.85875e+11 1.56296e+11
threshold=0.92500000000000016 0.70500000000000007 1.0550000000000004 1.2050000000000003 0.60500000000000009 0.84500000000000008 1.0050000000000001
decision_type=2 2 2 2 2 2 2
left_child=1 4 6 -4 -1 -3 -2
right_child=2 5 3 -5 -6 -7 -8
leaf_value=11184.888760528749 460.25245778406156 4284.019155023836 -1458.6221930778465 -2631.1509464990359 7661.7790710657619 2622.313916339052 -720.17789228014919
leaf_weight=43 245 315 527 902 104 181 148
leaf_count=43 245 315 527 902 104 181 148
internal_value=0 4824.07 -1721.08 -2198.73 8692.35 3677.63 15.7138
internal_weight=0 643 1822 1429 147 496 393
internal_count=2465 643 1822 1429 147 496 393
is_linear=0
shrinkage=0.0286803


Tree=27
num_leaves=5
num_cat=4
split_feature=1 1 1 1
split_gain=3.84987e+13 7.85821e+12 2.72116e+12 6.32277e+10
threshold=0 1 2 3
decision_type=1 1 1 1
left_child=1 -1 -2 -3
right_child=2 3 -4 -5
leaf_value=7144.3624964629089 -1582.2894285931086 2528.4889351773404 -4296.6146071489402 1635.768161871825
leaf_weight=406 547 275 812 403
leaf_count=406 547 275 812 403
internal_value=0 3992.91 -3223.63 2029.35
internal_weight=0 1084 1359 678
internal_count=2443 1084 1359 678
cat_boundaries=0 1 2 3 4
cat_threshold=148602 1104 34948 16386
is_linear=0
shrinkage=0.0286803


Tree=28
num_leaves=8
num_cat=0
split_feature=0 0 0 0 0 0 0
split_gain=2.24694e+13 2.85624e+12 2.03595e+12 6.08127e+11 5.65914e+11 4.63863e+11 1.45297e+11
threshold=0.92500000000000016 0.69500000000000006 1.0550000000000004 1.3750000000000002 0.77500000000000013 0.56500000000000006 1.0150000000000003
decision_type=2 2 2 2 2 2 2
left_child=1 5 6 -4 -3 -1 -2
right_child=2 4 3 -5 -6 -7 -8
leaf_value=11882.131579182569 623.30374502219433 5035.5475523335936 -1668.2251255940043 -2882.1449463707163 3010.8419372654757 7626.9896156524655 -616.21067788131381
leaf_weight=27 260 171 892 548 338 96 111
leaf_count=27 260 171 892 548 338 96 111
internal_value=0 4638.85 -1642.08 -2130.19 3691.05 8561.05 252.452
internal_weight=0 632 1811 1440 509 123 371
internal_count=2443 632 1811 1440 509 123 371
is_linear=0
shrinkage=0.0286803


Tree=29
num_leaves=5
num_cat=4
split_feature=1 1 1 1
split_gain=3.57027e+13 7.00921e+12 2.55108e+12 8.39706e+10
threshold=0 1 2 3
decision_type=1 1 1 1
left_child=1 -1 -2 -3
right_child=2 3 -4 -5
leaf_value=6824.6630728244381 -1515.0643378071663 2515.5441418003743 -4141.9187538391179 1577.9748798624646
leaf_weight=406 547 275 812 403
leaf_count=406 547 275 812 403
internal_value=0 3846.15 -3103.4 1989.29
internal_weight=0 1084 1359 678
internal_count=2443 1084 1359 678
cat_boundaries=0 1 2 3 4
cat_threshold=148602 1104 34948 16386
is_linear=0
shrinkage=0.0286803


Tree=30
num_leaves=8
num_cat=0
split_feature=0 0 0 0 0 0 0
split_gain=2.07813e+13 2.30793e+12 1.66097e+12 8.01746e+11 4.81332e+11 3.2887e+11 2.39354e+11
threshold=0.91500000000000015 0.72500000000000009 1.1650000000000003 0.60500000000000009 1.0150000000000003 1.6950000000000001 0.84500000000000008
decision_type=2 2 2 2 2 2 2
left_child=1 3 4 -1 -2 -4 -3
right_child=2 6 5 -5 -6 -7 -8
leaf_value=10705.951432279044 361.43285701925055 3916.3817231958551 -2137.7573514847313 6192.5152013993165 -1118.6803691206189 -3689.0440723090192 2530.3777549068714
leaf_weight=43 284 279 923 131 497 128 162
leaf_count=43 284 279 923 131 497 128 162
internal_value=0 4510.84 -1582.25 7307.9 -580.457 -2326.69 3407.24
internal_weight=0 615 1832 174 781 1051 441
internal_count=2447 615 1832 174 781 1051 441
is_linear=0
shrinkage=0.0286803


Tree=31
num_leaves=7
num_cat=6
split_feature=1 1 1 1 1 1
split_gain=3.31676e+13 6.06585e+12 2.60293e+12 1.02814e+11 3.34311e+10 9.68645e+09
threshold=0 1 2 3 4 5
decision_type=1 1 1 1 1 1
left_child=1 5 -2 -3 -4 -1
right_child=2 3 4 -5 -6 -7
leaf_value=7245.9821260596827 -1373.3941022766905 961.37113095016559 -4887.6024949589273 2145.3977169554141 -3526.1228750779255 4289.062114244628
leaf_weight=280 531 133 275 537 559 132
leaf_count=280 531 133 275 537 559 132
internal_value=0 3682.59 -3012.61 1927.95 -4027.64 6422.71
internal_weight=0 1082 1365 670 834 412
internal_count=2447 1082 1365 670 834 412
cat_boundaries=0 1 2 3 4 5 6
cat_threshold=148602 1104 34948 131072 65792 80
is_linear=0
shrinkage=0.0286803


Tree=32
num_leaves=8
num_cat=0
split_feature=0 0 0 0 0 0 0
split_gain=1.88491e+13 2.12092e+12 1.54942e+12 7.53637e+11 5.43746e+11 2.86745e+11 2.09304e+11
threshold=0.91500000000000015 0.72500000000000009 1.2050000000000003 0.60500000000000009 1.0150000000000003 1.8150000000000002 0.84500000000000008
decision_type=2 2 2 2 2 2 2
left_child=1 3 4 -1 -2 -4 -3
right_child=2 6 5 -5 -6 -7 -8
leaf_value=10272.912074941551 361.46676586945415 3715.2028263651418 -2219.9870208934158 5896.9854673048694 -1144.2672154453699 -4321.6832830360263 2419.1215558989538
leaf_weight=43 284 279 845 131 646 57 162
leaf_count=43 284 279 845 131 646 57 162
internal_value=0 4297.04 -1505.88 6978.39 -684.452 -2352.8 3239.09
internal_weight=0 615 1832 174 930 902 441
internal_count=2447 615 1832 174 930 902 441
is_linear=0
shrinkage=0.0286803


Tree=33
num_leaves=6
num_cat=5
split_feature=1 1 1 1 1
split_gain=3.0144e+13 5.70593e+12 2.20745e+12 4.2654e+11 2.87201e+10
threshold=0 1 2 3 4
decision_type=1 1 1 1 1
left_child=1 -1 -2 -3 -4
right_child=2 3 4 -5 -6
leaf_value=7234.7676165221501 -1359.4960558758551 3038.9063446901173 -4654.4359333781204 1545.3896672065234 -3336.5554015372709
leaf_weight=264 533 400 266 402 529
leaf_count=264 533 400 266 402 529
internal_value=0 3591.99 -2855.93 2318.54 -3829.85
internal_weight=0 1066 1328 802 795
internal_count=2394 1066 1328 802 795
cat_boundaries=0 1 2 3 4 5
cat_threshold=148602 80 34948 17410 65792
is_linear=0
shrinkage=0.0286803


Tree=34
num_leaves=8
num_cat=0
split_feature=0 0 0 0 0 0 0
split_gain=1.66625e+13 2.20043e+12 1.34229e+12 4.02476e+11 3.92011e+11 3.83988e+11 3.34346e+11
threshold=0.92500000000000016 0.72500000000000009 1.1650000000000003 1.0050000000000001 1.6950000000000001 0.56500000000000006 0.77500000000000013
decision_type=2 2 2 2 2 2 2
left_child=1 5 3 -2 -4 -1 -3
right_child=2 6 4 -5 -6 -7 -8
leaf_value=10246.442217125752 489.58130015961063 4334.6608788081003 -1862.8999762220765 -927.04813684440728 -3653.2088038527336 6273.5594404009862 2528.0305887503355
leaf_weight=23 245 114 917 505 113 154 323
leaf_count=23 245 114 917 505 113 154 323
internal_value=0 4092.02 -1387.25 -464.283 -2059.31 6789.81 2999.33
internal_weight=0 614 1780 750 1030 177 437
internal_count=2394 614 1780 750 1030 177 437
is_linear=0
shrinkage=0.0286803


Tree=35
num_leaves=6
num_cat=5
split_feature=1 1 1 1 1
split_gain=2.79914e+13 5.23102e+12 2.08007e+12 3.99953e+11 2.84128e+10
threshold=0 1 2 3 4
decision_type=1 1 1 1 1
left_child=1 -1 -2 -3 -4
right_child=2 3 4 -5 -6
leaf_value=6950.1413496186588 -1300.5344275179866 2938.6902131453107 -4495.0612725241726 1493.0337993477074 -3219.9362136555783
leaf_weight=264 533 400 266 402 529
leaf_count=264 533 400 266 402 529
internal_value=0 3461.27 -2752.15 2241.37 -3697.12
internal_weight=0 1066 1328 802 795
internal_count=2394 1066 1328 802 795
cat_boundaries=0 1 2 3 4 5
cat_threshold=148602 80 34948 17410 65792
is_linear=0
shrinkage=0.0286803


Tree=36
num_leaves=8
num_cat=0
split_feature=0 0 0 0 0 0 0
split_gain=1.48631e+13 2.04404e+12 1.4414e+12 4.61126e+11 3.70628e+11 3.27707e+11 3.17086e+11
threshold=0.92500000000000016 0.70500000000000007 1.1650000000000003 1.0050000000000001 0.56500000000000006 1.6950000000000001 0.77500000000000013
decision_type=2 2 2 2 2 2 2
left_child=1 4 3 -2 -1 -4 -3
right_child=2 6 5 -5 -6 -7 -8
leaf_value=10520.486915022751 686.97305496103718 4015.3733003132843 -1826.2142959790683 -844.08680406262761 6293.0310334254855 -3444.1591023055762 2458.4747096962865
leaf_weight=20 239 157 917 501 116 116 342
leaf_count=20 239 157 917 501 116 116 342
internal_value=0 3797.82 -1315.77 -349.596 6914.72 -2007.9 2948.32
internal_weight=0 635 1773 740 136 1033 499
internal_count=2408 635 1773 740 136 1033 499
is_linear=0
shrinkage=0.0286803


Tree=37
num_leaves=7
num_cat=6
split_feature=1 1 1 1 1 1
split_gain=2.59777e+13 4.79433e+12 2.01847e+12 3.95358e+11 1.20466e+10 7.63384e+09
threshold=0 1 2 3 4 5
decision_type=1 1 1 1 1 1
left_child=1 -1 4 -3 -2 -4
right_child=2 3 5 -5 -6 -7
leaf_value=6569.7486696935712 -741.80515825784471 2814.0622449296857 -4676.5866597258218 1375.8315578472238 -1343.4915531324091 -3235.847819565151
leaf_weight=280 136 405 143 382 407 655
leaf_count=280 136 405 143 382 407 655
internal_value=0 3354.12 -2617.24 2141.98 -1208.93 -3548.71
internal_weight=0 1067 1341 787 543 798
internal_count=2408 1067 1341 787 543 798
cat_boundaries=0 1 2 3 4 5 6
cat_threshold=148602 80 34948 17410 32768 65536
is_linear=0
shrinkage=0.0286803


Tree=38
num_leaves=8
num_cat=0
split_feature=0 0 0 0 0 0 0
split_gain=1.34817e+13 1.90337e+12 1.35294e+12 4.28672e+11 3.51227e+11 3.17052e+11 2.84986e+11
threshold=0.92500000000000016 0.70500000000000007 1.1650000000000003 1.0050000000000001 0.56500000000000006 1.6950000000000001 0.77500000000000013
decision_type=2 2 2 2 2 2 2
left_child=1 4 3 -2 -1 -4 -3
right_child=2 6 5 -5 -6 -7 -8
leaf_value=10134.694632122395 682.14688542699719 3808.6891211709581 -1745.1872259864531 -794.05198736448392 6019.3708639194001 -3336.6112206708594 2332.6984486485258
leaf_weight=20 239 157 917 501 116 116 342
leaf_count=20 239 157 917 501 116 116 342
internal_value=0 3616.83 -1253.34 -317.28 6624.57 -1923.9 2797.09
internal_weight=0 635 1773 740 136 1033 499
internal_count=2408 635 1773 740 136 1033 499
is_linear=0
shrinkage=0.0286803


Tree=39
num_leaves=6
num_cat=5
split_feature=1 1 1 1 1
split_gain=2.45823e+13 4.02988e+12 1.9726e+12 3.33016e+11 3.07653e+10
threshold=0 1 2 3 4
decision_type=1 1 1 1 1
left_child=1 -1 -2 -3 -4
right_child=2 3 4 -5 -6
leaf_value=6249.7520428916978 -1130.988293352299 2792.2249390073325 -4181.001381163891 1463.007771896873 -2996.0889055380267
leaf_weight=273 545 408 265 403 556
leaf_count=273 545 408 265 403 556
internal_value=0 3235.88 -2524.17 2157.58 -3424.26
internal_weight=0 1084 1366 811 821
internal_count=2450 1084 1366 811 821
cat_boundaries=0 1 2 3 4 5
cat_threshold=148602 80 34948 17410 65792
is_linear=0
shrinkage=0.0286803


Tree=40
num_leaves=8
num_cat=0
split_feature=0 0 0 0 0 0 0
split_gain=1.34798e+13 2.31803e+12 9.22198e+11 3.60968e+11 3.25662e+11 3.22576e+11 2.2097e+11
threshold=0.95500000000000007 0.70500000000000007 1.1650000000000003 0.85500000000000009 1.6950000000000001 0.56500000000000006 1.0150000000000003
decision_type=2 2 2 2 2 2 2
left_child=1 5 6 -3 -4 -1 -2
right_child=2 3 4 -5 -6 -7 -8
leaf_value=9542.9620196437518 305.26075097197582 3132.4732922215444 -1682.0068456811325 1649.4668837811028 -3269.6647689098108 5966.8646027213472 -834.7880307289372
leaf_weight=25 194 331 929 228 120 122 501
leaf_count=25 194 331 929 228 120 122 501
internal_value=0 3370.34 -1326.81 2527.6 -1863.63 6575.04 -516.559
internal_weight=0 706 1744 559 1049 147 695
internal_count=2450 706 1744 559 1049 147 695
is_linear=0
shrinkage=0.0286803


Tree=41
num_leaves=6
num_cat=5
split_feature=1 1 1 1 1
split_gain=2.28256e+13 3.69516e+12 1.85487e+12 3.11262e+11 3.0019e+10
threshold=0 1 2 3 4
decision_type=1 1 1 1 1
left_child=1 -1 -2 -3 -4
right_child=2 3 4 -5 -6
leaf_value=6004.7118671289736 -1082.3376042146544 2698.2109150608931 -4037.3186959783102 1413.3296665701855 -2890.9949813582025
leaf_weight=273 545 408 265 403 556
leaf_count=273 545 408 265 403 556
internal_value=0 3117.82 -2432.6 2084.72 -3305.13
internal_weight=0 1084 1366 811 821
internal_count=2450 1084 1366 811 821
cat_boundaries=0 1 2 3 4 5
cat_threshold=148602 80 34948 17410 65792
is_linear=0
shrinkage=0.0286803


Tree=42
num_leaves=8
num_cat=0
split_feature=0 0 0 0 0 0 0
split_gain=1.09413e+13 1.93008e+12 1.08546e+12 3.77582e+11 3.08124e+11 2.96429e+11 2.70572e+11
threshold=0.93500000000000016 0.70500000000000007 1.2050000000000003 0.56500000000000006 1.0550000000000004 0.84500000000000008 1.6950000000000001
decision_type=2 2 2 2 2 2 2
left_child=1 3 4 -1 -2 -3 -4
right_child=2 5 6 -5 -6 -7 -8
leaf_value=9329.3625801535418 158.34418369141844 2842.5080838574681 -1703.1224652738865 5385.8883421813798 -933.5703767774072 1455.7596056737671 -3155.321802865426
leaf_weight=24 362 320 782 119 515 210 122
leaf_count=24 362 320 782 119 515 210 122
internal_value=0 3090.84 -1201.72 6047.73 -482.86 2293.04 -1899.11
internal_weight=0 673 1781 143 877 530 904
internal_count=2454 673 1781 143 877 530 904
is_linear=0
shrinkage=0.0286803


Tree=43
num_leaves=7
num_cat=6
split_feature=1 1 1 1 1 1
split_gain=2.07078e+13 2.72196e+12 2.72179e+12 2.5995e+11 2.90791e+10 2.02244e+10
threshold=0 1 2 3 4 5
decision_type=1 1 1 1 1 1
left_child=1 -1 3 -2 -4 -3
right_child=2 5 4 -5 -6 -7
leaf_value=5743.552013191802 346.31166016247619 2995.5689980419056 -3933.0597239593085 -1035.3957810696274 -2819.3590163065569 1990.5508279192732
leaf_weight=267 140 134 275 541 544 553
leaf_count=267 140 134 275 541 544 553
internal_value=0 3260.38 -2120.13 -750.443 -3236.24 2226.75
internal_weight=0 954 1500 681 819 687
internal_count=2454 954 1500 681 819 687
cat_boundaries=0 1 2 3 4 5 6
cat_threshold=17530 80 166020 131072 65792 1024
is_linear=0
shrinkage=0.0286803


Tree=44
num_leaves=8
num_cat=0
split_feature=0 0 0 0 0 0 0
split_gain=9.93517e+12 1.78721e+12 1.01826e+12 3.08589e+11 2.93987e+11 2.85343e+11 2.62309e+11
threshold=0.93500000000000016 0.69500000000000006 1.2050000000000003 0.84500000000000008 0.56500000000000006 1.0550000000000004 1.6950000000000001
decision_type=2 2 2 2 2 2 2
left_child=1 4 5 -3 -1 -2 -4
right_child=2 3 6 -5 -6 -7 -8
leaf_value=8971.0238571539103 168.78108667885058 2789.8024440486779 -1627.0062812203992 1394.5897742318216 5418.3564618384789 -881.99322368089645 -3056.8613123047944
leaf_weight=24 362 344 782 210 95 515 122
leaf_count=24 362 344 782 210 95 515 122
internal_value=0 2945.92 -1144.52 2260.93 6134.86 -448.264 -1819.97
internal_weight=0 673 1781 554 119 877 904
internal_count=2454 673 1781 554 119 877 904
is_linear=0
shrinkage=0.0286803


Tree=45
num_leaves=7
num_cat=6
split_feature=1 1 1 1 1 1
split_gain=2.04583e+13 2.60945e+12 2.40059e+12 2.51827e+11 5.40722e+10 4.70654e+10
threshold=0 1 2 3 4 5
decision_type=1 1 1 1 1 1
left_child=1 -1 3 -2 -3 -4
right_child=2 4 5 -5 -6 -7
leaf_value=5734.207678135157 321.87544634047953 1361.2944201979128 -3800.9633186735041 -1039.2875124239467 2490.4639322634553 -2687.5036075104363
leaf_weight=269 140 138 269 544 544 547
leaf_count=269 140 138 269 544 544 547
internal_value=0 3310.13 -2042.98 -760.063 2284.95 -3096.14
internal_weight=0 951 1500 684 682 816
internal_count=2451 951 1500 684 682 816
cat_boundaries=0 1 2 3 4 5 6
cat_threshold=17530 80 166020 131072 32 65792
is_linear=0
shrinkage=0.0286803


Tree=46
num_leaves=8
num_cat=0
split_feature=0 0 0 0 0 0 0
split_gain=9.6875e+12 1.67265e+12 8.56624e+11 3.64141e+11 3.34845e+11 3.21513e+11 2.0754e+11
threshold=0.95500000000000007 0.70500000000000007 1.1950000000000001 0.56500000000000006 0.77500000000000013 1.6950000000000001 1.0150000000000003
decision_type=2 2 2 2 2 2 2
left_child=1 3 6 -1 -3 -4 -2
right_child=2 4 5 -5 -6 -7 -8
leaf_value=8876.393333565351 369.47153960953432 3295.9859238501622 -1501.378575158099 4998.1946195843111 1739.4320384301714 -3086.6124331102537 -694.72673457969677
leaf_weight=24 200 157 808 117 412 121 612
leaf_count=24 200 157 808 117 412 121 612
internal_value=0 2861.88 -1113.08 5658.31 2168.92 -1707.85 -432.609
internal_weight=0 710 1741 141 569 929 812
internal_count=2451 710 1741 141 569 929 812
is_linear=0
shrinkage=0.0286803


Tree=47
num_leaves=7
num_cat=6
split_feature=1 1 1 1 1 1
split_gain=1.91132e+13 2.37484e+12 2.22578e+12 2.12006e+11 5.61694e+10 5.06697e+10
threshold=0 1 2 3 4 5
decision_type=1 1 1 1 1 1
left_child=1 -1 3 -2 -4 -3
right_child=2 5 4 -5 -6 -7
leaf_value=5513.7878024128422 256.83627973292363 1323.0132093045977 -4095.7387191430798 -996.20041503945731 -2718.1058469855302 2418.6328197665389
leaf_weight=269 140 138 133 544 683 544
leaf_count=269 140 138 133 544 683 544
internal_value=0 3198.83 -1975.3 -739.726 -2989.51 2219.26
internal_weight=0 951 1500 684 816 682
internal_count=2451 951 1500 684 816 682
cat_boundaries=0 1 2 3 4 5 6
cat_threshold=17530 80 166020 131072 65536 32
is_linear=0
shrinkage=0.0286803


Tree=48
num_leaves=8
num_cat=0
split_feature=0 0 0 0 0 0 0
split_gain=8.16918e+12 1.55499e+12 1.01377e+12 3.56335e+11 2.6316e+11 1.21108e+11 7.10573e+10
threshold=0.89500000000000013 0.69500000000000006 1.0550000000000004 1.6650000000000003 0.56500000000000006 0.77500000000000013 1.0050000000000001
decision_type=2 2 2 2 2 2 2
left_child=1 4 6 -4 -1 -3 -2
right_child=2 5 3 -5 -6 -7 -8
leaf_value=8727.1584969341948 491.63716085644882 2821.4836825868015 -1136.9282228555098 -2624.1381993376431 5262.4800499143594 1851.1839354096899 -274.07987691540905
leaf_weight=22 319 174 1267 148 100 270 145
leaf_count=22 319 174 1267 148 100 270 145
internal_value=0 3019.44 -911 -1292.48 5887.26 2231.44 252.351
internal_weight=0 566 1879 1415 122 444 464
internal_count=2445 566 1879 1415 122 444 464
is_linear=0
shrinkage=0.0286803


Tree=49
num_leaves=6
num_cat=5
split_feature=1 1 1 1 1
split_gain=1.67921e+13 2.08278e+12 2.05172e+12 1.46551e+11 8.26154e+10
threshold=0 1 2 3 4
decision_type=1 1 1 1 1
left_child=1 -1 4 -4 -2
right_child=2 -3 3 -5 -6
leaf_value=5079.3907772877174 -45.697440431328701 2023.5487094042228 -4166.4279768348761 -2585.6616902051819 -876.59206450308375
leaf_weight=276 132 679 128 676 554
leaf_count=276 132 679 128 676 554
internal_value=0 2950.19 -1899.75 -2885.42 -719.665
internal_weight=0 955 1490 804 686
internal_count=2445 955 1490 804 686
cat_boundaries=0 1 2 3 4 5
cat_threshold=17530 80 166020 65536 131072
is_linear=0
shrinkage=0.0286803


Tree=50
num_leaves=8
num_cat=0
split_feature=0 0 0 0 0 0 0
split_gain=7.42526e+12 1.45198e+12 9.4473e+11 3.44635e+11 2.49252e+11 1.09249e+11 6.5138e+10
threshold=0.89500000000000013 0.69500000000000006 1.0550000000000004 1.6650000000000003 0.56500000000000006 0.77500000000000013 1.0050000000000001
decision_type=2 2 2 2 2 2 2
left_child=1 4 6 -4 -1 -3 -2
right_child=2 5 3 -5 -6 -7 -8
leaf_value=8413.6567165529414 483.55327318236345 2677.5798027676442 -1083.8697085371355 -2546.4600837482712 5041.7752108186996 1756.0122736764856 -249.57692564120546
leaf_weight=22 319 174 1267 148 100 270 145
leaf_count=22 319 174 1267 148 100 270 145
internal_value=0 2878.62 -868.587 -1236.85 5649.82 2117.17 254.45
internal_weight=0 566 1879 1415 122 444 464
internal_count=2445 566 1879 1415 122 444 464
is_linear=0
shrinkage=0.0286803


Tree=51
num_leaves=7
num_cat=6
split_feature=1 1 1 1 1 1
split_gain=1.56934e+13 2.11112e+12 2.0799e+12 1.59085e+11 6.1873e+10 2.76114e+10
threshold=0 1 2 3 4 5
decision_type=1 1 1 1 1 1
left_child=1 -1 3 -2 -4 -3
right_child=2 5 4 -5 -6 -7
leaf_value=5000.908418713525 -108.19873825081176 1157.4887991555961 -3882.8865488278607 -1018.7189552607695 -2568.8427740631359 2077.9674647604779
leaf_weight=272 272 133 140 408 671 538
leaf_count=272 272 133 140 408 671 538
internal_value=0 2848.38 -1857.53 -661.357 -2840.21 1915.19
internal_weight=0 943 1491 680 811 671
internal_count=2434 943 1491 680 811 671
cat_boundaries=0 1 2 3 4 5 6
cat_threshold=17530 80 166020 163840 65536 32
is_linear=0
shrinkage=0.0286803


Tree=52
num_leaves=8
num_cat=0
split_feature=0 0 0 0 0 0 0
split_gain=7.16634e+12 9.73045e+11 8.00473e+11 2.76027e+11 2.04745e+11 1.99246e+11 9.52353e+10
threshold=0.91500000000000015 0.70500000000000007 1.3750000000000002 1.0350000000000004 1.8150000000000002 0.60500000000000009 0.77500000000000013
decision_type=2 2 2 2 2 2 2
left_child=1 5 3 -2 -4 -1 -3
right_child=2 6 4 -5 -6 -7 -8
leaf_value=6387.5945746973939 145.04699304539793 2598.9809204476105 -1678.2343288967727 -800.18861040775414 -3541.3316131700185 4033.1261680410917 1725.4328876844556
leaf_weight=41 348 153 478 942 54 106 312
leaf_count=41 348 153 478 942 54 106 312
internal_value=0 2655.85 -931.245 -545.195 -1867.35 4689.81 2012.86
internal_weight=0 612 1822 1290 532 147 465
internal_count=2434 612 1822 1290 532 147 465
is_linear=0
shrinkage=0.0286803


Tree=53
num_leaves=7
num_cat=6
split_feature=1 1 1 1 1 1
split_gain=1.46789e+13 1.93251e+12 1.92149e+12 1.3804e+11 6.35378e+10 2.55374e+10
threshold=0 1 2 3 4 5
decision_type=1 1 1 1 1 1
left_child=2 3 -1 -2 -3 -4
right_child=1 4 5 -5 -6 -7
leaf_value=4811.2565836642489 -125.4848006355293 -3762.5034797144535 1128.4217189098249 -975.97556721628212 -2478.1626891131737 2021.7319186000136
leaf_weight=272 272 140 133 408 671 538
leaf_count=272 272 140 133 408 671 538
internal_value=0 -1795.7 2755.56 -642.528 -2743 1863.84
internal_weight=0 1491 943 680 811 671
internal_count=2434 1491 943 680 811 671
cat_boundaries=0 1 2 3 4 5 6
cat_threshold=17530 166020 80 163840 65536 32
is_linear=0
shrinkage=0.0286803


Tree=54
num_leaves=8
num_cat=0
split_feature=0 0 0 0 0 0 0
split_gain=6.80318e+12 1.25091e+12 8.31729e+11 3.06235e+11 2.45768e+11 2.42502e+11 1.15899e+11
threshold=0.91500000000000015 0.70500000000000007 1.2150000000000001 1.8150000000000002 1.0150000000000003 0.56500000000000006 0.77500000000000013
decision_type=2 2 2 2 2 2 2
left_child=1 5 4 -4 -2 -1 -3
right_child=2 6 3 -5 -6 -7 -8
leaf_value=7406.1164674915917 412.09420137204103 2565.833542830921 -1365.2527435498487 -3655.4183124809479 -583.22991721816413 4393.09156661415 1600.1481126000413
leaf_weight=27 296 150 824 51 657 118 321
leaf_count=27 296 150 824 51 657 118 321
internal_value=0 2624.79 -860.283 -1498.74 -274.084 4954.14 1907.69
internal_weight=0 616 1828 875 953 145 471
internal_count=2444 616 1828 875 953 145 471
is_linear=0
shrinkage=0.0286803


Tree=55
num_leaves=7
num_cat=6
split_feature=1 1 1 1 1 1
split_gain=1.449e+13 1.74958e+12 1.48035e+12 1.37972e+11 7.73154e+10 1.14105e+10
threshold=0 1 2 3 4 5
decision_type=1 1 1 1 1 1
left_child=2 3 -1 -2 -3 -4
right_child=1 4 5 -5 -6 -7
leaf_value=4539.0626779666363 -123.16087514802635 -3673.7315424148469 1237.9223006883856 -977.62697281791793 -2383.9884372629522 2104.1892173082238
leaf_weight=282 270 139 134 402 676 541
leaf_count=282 270 139 134 402 676 541
internal_value=0 -1750.21 2753.96 -641.154 -2645.82 1952.8
internal_weight=0 1487 957 672 815 675
internal_count=2444 1487 957 672 815 675
cat_boundaries=0 1 2 3 4 5 6
cat_threshold=17530 166020 80 163840 65536 32
is_linear=0
shrinkage=0.0286803


Tree=56
num_leaves=8
num_cat=0
split_feature=0 0 0 0 0 0 0
split_gain=6.18113e+12 1.16574e+12 7.8271e+11 2.95331e+11 2.28762e+11 2.28673e+11 1.03953e+11
threshold=0.91500000000000015 0.70500000000000007 1.2150000000000001 1.8150000000000002 1.0150000000000003 0.56500000000000006 0.77500000000000013
decision_type=2 2 2 2 2 2 2
left_child=1 5 4 -4 -2 -1 -3
right_child=2 6 3 -5 -6 -7 -8
leaf_value=7131.5156264033121 410.57314007911629 2432.8731083361322 -1308.3696727440413 -3557.3952492885537 -549.69817541854786 4205.6572880302438 1518.3056127534528
leaf_weight=27 296 150 824 51 657 118 321
leaf_count=27 296 150 824 51 657 118 321
internal_value=0 2501.83 -820.102 -1439.46 -251.44 4750.47 1809.57
internal_weight=0 616 1828 875 953 145 471
internal_count=2444 616 1828 875 953 145 471
is_linear=0
shrinkage=0.0286803


Tree=57
num_leaves=7
num_cat=6
split_feature=1 1 1 1 1 1
split_gain=1.38221e+13 1.53013e+12 1.45195e+12 8.00125e+10 6.05751e+10 2.8308e+10
threshold=0 1 2 3 4 5
decision_type=1 1 1 1 1 1
left_child=1 -1 3 -2 -4 -3
right_child=2 5 4 -5 -6 -7
leaf_value=4613.0365772006589 -5.0906551968813583 1166.4686872394577 -3445.9148709363826 -813.89495354890994 -2242.5989732134831 2106.3158549773034
leaf_weight=267 133 130 134 549 685 557
leaf_count=267 133 130 134 549 685 557
internal_value=0 2733.82 -1661.49 -658.519 -2478.67 1947.76
internal_weight=0 954 1501 682 819 687
internal_count=2455 954 1501 682 819 687
cat_boundaries=0 1 2 3 4 5 6
cat_threshold=17530 80 166020 131072 65536 32
is_linear=0
shrinkage=0.0286803


Tree=58
num_leaves=8
num_cat=0
split_feature=0 0 0 0 0 0 0
split_gain=5.25163e+12 1.30227e+12 6.2854e+11 2.79687e+11 1.89424e+11 1.78906e+11 6.98117e+10
threshold=0.95500000000000007 0.70500000000000007 1.3750000000000002 0.56500000000000006 1.8150000000000002 1.0550000000000004 0.89500000000000013
decision_type=2 2 2 2 2 2 2
left_child=1 3 5 -1 -4 -2 -3
right_child=2 6 4 -5 -6 -7 -8
leaf_value=7294.9207367240642 158.85289963386768 1681.1857851745337 -1429.1547157608675 3965.0349044990462 -3191.4345069712554 -639.65445030282751 937.11604555496615
leaf_weight=25 311 427 482 122 56 895 137
leaf_count=25 311 427 482 122 56 895 137
internal_value=0 2127.09 -797.397 4531.34 -1612.59 -433.738 1500.45
internal_weight=0 711 1744 147 538 1206 564
internal_count=2455 711 1744 147 538 1206 564
is_linear=0
shrinkage=0.0286803


Tree=59
num_leaves=7
num_cat=6
split_feature=1 1 1 1 1 1
split_gain=1.29386e+13 1.39516e+12 1.35191e+12 6.67695e+10 6.1041e+10 2.67495e+10
threshold=0 1 2 3 4 5
decision_type=1 1 1 1 1 1
left_child=1 -1 3 -2 -4 -3
right_child=2 5 4 -5 -6 -7
leaf_value=4440.5176914427129 -261.11839590992344 1132.9652771824437 -3343.3228876921971 -874.29338774422195 -2166.6527451888574 2046.0718119897344
leaf_weight=267 268 130 134 414 685 557
leaf_count=267 268 130 134 414 685 557
internal_value=0 2643.94 -1608.57 -640.594 -2397.18 1892.02
internal_weight=0 954 1501 682 819 687
internal_count=2455 954 1501 682 819 687
cat_boundaries=0 1 2 3 4 5 6
cat_threshold=17530 80 166020 131076 65536 32
is_linear=0
shrinkage=0.0286803


Tree=60
num_leaves=8
num_cat=0
split_feature=0 0 0 0 0 0 0
split_gain=5.07082e+12 1.14167e+12 4.79783e+11 2.12896e+11 2.12435e+11 1.15414e+11 1.05365e+11
threshold=0.96500000000000008 0.70500000000000007 1.3750000000000002 1.8150000000000002 0.60500000000000009 1.1050000000000002 0.77500000000000013
decision_type=2 2 2 2 2 2 2
left_child=1 4 5 -4 -1 -2 -3
right_child=2 6 3 -5 -6 -7 -8
leaf_value=5870.1702321148341 -134.03749510784081 2123.995040714522 -1357.6080107365324 -3292.6279989442605 3541.3302147455906 -721.40333855194967 1241.1856417757335
leaf_weight=48 436 150 465 52 98 746 430
leaf_count=48 436 150 465 52 98 746 430
internal_value=0 2040.12 -823.491 -1552.23 4306.98 -504.744 1469.5
internal_weight=0 726 1699 517 146 1182 580
internal_count=2425 726 1699 517 146 1182 580
is_linear=0
shrinkage=0.0286803


Tree=61
num_leaves=7
num_cat=6
split_feature=1 1 1 1 1 1
split_gain=1.18447e+13 1.30116e+12 1.18718e+12 7.21025e+10 6.89335e+10 6.1091e+10
threshold=0 1 2 3 4 5
decision_type=1 1 1 1 1 1
left_child=2 4 -1 -4 -2 -3
right_child=1 5 3 -5 -6 -7
leaf_value=4160.0939560356219 -376.33738561331489 -3311.3412866080221 955.17540465121033 1995.4211601497614 -1000.1945858197021 -2134.0894104354084
leaf_weight=269 414 132 135 550 263 662
leaf_count=269 414 132 135 550 263 662
internal_value=0 -1577.95 2506.85 1807.1 -629.724 -2368.56
internal_weight=0 1471 954 685 677 794
internal_count=2425 1471 954 685 677 794
cat_boundaries=0 1 2 3 4 5 6
cat_threshold=17530 166020 80 32 163844 65536
is_linear=0
shrinkage=0.0286803


Tree=62
num_leaves=8
num_cat=0
split_feature=0 0 0 0 0 0 0
split_gain=4.62562e+12 1.05362e+12 4.56811e+11 2.05141e+11 2.00832e+11 1.1054e+11 9.32662e+10
threshold=0.96500000000000008 0.70500000000000007 1.3750000000000002 1.8150000000000002 0.60500000000000009 1.1050000000000002 0.77500000000000013
decision_type=2 2 2 2 2 2 2
left_child=1 4 5 -4 -1 -2 -3
right_child=2 6 3 -5 -6 -7 -8
leaf_value=5645.7363768167706 -113.05215158643125 2015.7440106806066 -1306.9041973173362 -3206.3526445710254 3381.3889184987916 -687.88336506901942 1185.1656391007846
leaf_weight=48 436 150 465 52 98 746 430
leaf_count=48 436 150 465 52 98 746 430
internal_value=0 1948.15 -786.87 -1497.95 4125.83 -475.847 1399.97
internal_weight=0 726 1699 517 146 1182 580
internal_count=2425 726 1699 517 146 1182 580
is_linear=0
shrinkage=0.0286803


Tree=63
num_leaves=7
num_cat=6
split_feature=1 1 1 1 1 1
split_gain=1.05771e+13 1.36821e+12 1.09593e+12 1.28678e+11 8.53614e+10 2.48679e+09
threshold=0 1 2 3 4 5
decision_type=1 1 1 1 1 1
left_child=2 4 -1 -3 -2 -4
right_child=1 3 5 -5 -6 -7
leaf_value=3961.4643072200474 176.34556218635257 -3299.0654060067832 1115.1095240724671 -1994.4045464866922 -646.27244459937651 1836.3587376716901
leaf_weight=271 128 138 137 678 555 551
leaf_count=271 128 138 137 678 555 551
internal_value=0 -1458.73 2381.1 -2252.31 -491.787 1710.77
internal_weight=0 1499 959 816 683 688
internal_count=2458 1499 959 816 683 688
cat_boundaries=0 1 2 3 4 5 6
cat_threshold=17530 166020 80 65536 131072 32
is_linear=0
shrinkage=0.0286803


Tree=64
num_leaves=8
num_cat=0
split_feature=0 0 0 0 0 0 0
split_gain=3.93664e+12 7.48437e+11 6.89256e+11 2.79787e+11 1.3997e+11 7.79807e+10 7.59958e+10
threshold=0.89500000000000013 0.69500000000000006 1.1050000000000002 1.8150000000000002 0.60500000000000009 1.0150000000000003 0.77500000000000013
decision_type=2 2 2 2 2 2 2
left_child=1 4 5 -4 -1 -2 -3
right_child=2 6 3 -5 -6 -7 -8
leaf_value=5524.8880338703611 486.8666306518034 2086.7508228142992 -878.52796962604384 -3046.6887530278823 3451.9345234223847 -158.6241096091637 1318.4307647117548
leaf_weight=42 345 173 1222 51 74 278 273
leaf_count=42 345 173 1222 51 74 278 273
internal_value=0 2150.23 -582.843 -965.391 4202.49 198.831 1616.46
internal_weight=0 562 1896 1273 116 623 446
internal_count=2458 562 1896 1273 116 623 446
is_linear=0
shrinkage=0.0286803


Tree=65
num_leaves=7
num_cat=6
split_feature=1 1 1 1 1 1
split_gain=9.8951e+12 1.2766e+12 9.96994e+11 1.24933e+11 7.1467e+10 1.52752e+10
threshold=0 1 2 3 4 5
decision_type=1 1 1 1 1 1
left_child=2 4 -1 -3 -2 -4
right_child=1 3 5 -5 -6 -7
leaf_value=3811.5527112933601 136.49822386815464 -3200.8012545300599 1892.8188407381679 -1926.8055072540574 -619.27386178580787 1262.2053027188292
leaf_weight=271 128 138 412 678 555 276
leaf_count=271 128 138 412 678 555 276
internal_value=0 -1411.81 2302.17 -2178.4 -477.71 1661.55
internal_weight=0 1499 959 816 683 688
internal_count=2458 1499 959 816 683 688
cat_boundaries=0 1 2 3 4 5 6
cat_threshold=17530 166020 80 65536 131072 16394
is_linear=0
shrinkage=0.0286803


Tree=66
num_leaves=8
num_cat=0
split_feature=0 0 0 0 0 0 0
split_gain=3.65418e+12 6.23262e+11 4.79309e+11 1.92363e+11 1.84799e+11 9.78178e+10 9.28568e+10
threshold=0.95500000000000007 0.70500000000000007 1.3750000000000002 1.1050000000000002 1.8150000000000002 0.75500000000000012 0.60500000000000009
decision_type=2 2 2 2 2 2 2
left_child=1 6 3 -2 -4 -3 -1
right_child=2 5 4 -5 -6 -7 -8
leaf_value=4515.320031852887 19.174997611126063 2060.0210456788432 -1289.8128334860905 -730.02084076202982 -3002.9695937430261 1084.6826752806571 2906.3302951154315
leaf_weight=43 455 103 484 741 58 473 94
leaf_count=43 455 103 484 741 58 473 94
internal_value=0 1672.64 -765.629 -445.001 -1473.14 1259.09 3411.34
internal_weight=0 713 1738 1196 542 576 137
internal_count=2451 713 1738 1196 542 576 137
is_linear=0
shrinkage=0.0286803


Tree=67
num_leaves=7
num_cat=6
split_feature=1 1 1 1 1 1
split_gain=9.01487e+12 1.0695e+12 9.16447e+11 9.09205e+10 8.919e+10 4.70096e+10
threshold=0 1 2 3 4 5
decision_type=1 1 1 1 1 1
left_child=2 3 -1 -2 -4 -3
right_child=1 5 4 -5 -6 -7
leaf_value=4275.9104103844547 -300.10769571815922 -2992.8406975356561 2071.2075571735322 -993.6468792288772 1277.2023649398686 -1939.1920038861458
leaf_weight=140 418 132 408 271 403 679
leaf_count=140 418 132 408 271 403 679
internal_value=0 -1436.26 2117.21 -583.206 1697.02 -2145.05
internal_weight=0 1500 951 689 811 811
internal_count=2451 1500 951 689 811 811
cat_boundaries=0 1 2 3 4 5 6
cat_threshold=17530 166020 16 163844 16450 65536
is_linear=0
shrinkage=0.0286803


Tree=68
num_leaves=8
num_cat=0
split_feature=0 0 0 0 0 0 0
split_gain=3.3403e+12 5.78779e+11 4.54532e+11 1.82809e+11 1.7964e+11 8.90345e+10 8.83595e+10
threshold=0.95500000000000007 0.70500000000000007 1.3750000000000002 1.1050000000000002 1.7850000000000004 0.75500000000000012 0.60500000000000009
decision_type=2 2 2 2 2 2 2
left_child=1 6 3 -2 -4 -3 -1
right_child=2 5 4 -5 -6 -7 -8
leaf_value=4352.4849079377991 33.599656541093694 1965.6727575035766 -1210.8683293166641 -696.75439767767659 -2723.0231468595657 1035.1532758451326 2782.9425192038539
leaf_weight=43 455 103 467 741 75 473 94
leaf_count=43 455 103 467 741 75 473 94
internal_value=0 1600.06 -731.133 -418.902 -1420.11 1201.55 3275.57
internal_weight=0 713 1738 1196 542 576 137
internal_count=2451 713 1738 1196 542 576 137
is_linear=0
shrinkage=0.0286803


Tree=69
num_leaves=7
num_cat=6
split_feature=1 1 1 1 1 1
split_gain=8.54885e+12 1.02108e+12 7.94185e+11 7.89448e+10 7.83451e+10 2.83108e+10
threshold=0 1 2 3 4 5
decision_type=1 1 1 1 1 1
left_child=2 5 -1 -3 -4 -2
right_child=1 3 4 -5 -6 -7
leaf_value=4174.5967182180775 -112.21006691902558 -2927.9282417277714 1150.9763613258797 -1830.2529620689731 1962.6007016175574 -612.56346798067204
leaf_weight=133 135 140 272 690 540 525
leaf_count=133 135 140 272 690 540 525
internal_value=0 -1376.24 2095.26 -2048.06 1708.04 -513.421
internal_weight=0 1490 945 830 812 660
internal_count=2435 1490 945 830 812 660
cat_boundaries=0 1 2 3 4 5 6
cat_threshold=17530 166020 16 65536 1056 131072
is_linear=0
shrinkage=0.0286803


Tree=70
num_leaves=8
num_cat=0
split_feature=0 0 0 0 0 0 0
split_gain=2.92156e+12 7.08838e+11 4.40561e+11 1.69698e+11 1.58222e+11 9.54326e+10 9.3034e+10
threshold=0.96500000000000008 0.69500000000000006 1.3750000000000002 1.7650000000000003 0.77500000000000013 1.1050000000000002 0.60500000000000009
decision_type=2 2 2 2 2 2 2
left_child=1 6 5 -4 -3 -2 -1
right_child=2 4 3 -5 -6 -7 -8
leaf_value=4482.5510536770025 -19.613980543670067 1836.6156278782594 -1148.4235117554585 -2612.0179704811098 806.91338627528512 -557.5447534143758 2856.9430666762969
leaf_weight=48 425 171 457 76 435 750 73
leaf_count=48 425 171 457 76 435 750 73
internal_value=0 1497.64 -673.207 -1357.12 1097.47 -362.974 3501.81
internal_weight=0 727 1708 533 606 1175 121
internal_count=2435 727 1708 533 606 1175 121
is_linear=0
shrinkage=0.0286803


Tree=71
num_leaves=7
num_cat=6
split_feature=1 1 1 1 1 1
split_gain=8.00681e+12 9.51634e+11 7.39175e+11 9.0406e+10 7.72806e+10 2.40087e+10
threshold=0 1 2 3 4 5
decision_type=1 1 1 1 1 1
left_child=2 5 -1 -4 -3 -2
right_child=1 4 3 -5 -6 -7
leaf_value=4035.3904279821008 -259.35794157196057 -2839.2074214135873 1084.6909254405884 1916.9990917770294 -1767.197403602846 -647.77537039376091
leaf_weight=133 265 140 272 540 690 395
leaf_count=133 265 140 272 540 690 395
internal_value=0 -1331.06 2028.58 1654.78 -1979.67 -498.019
internal_weight=0 1490 945 812 830 660
internal_count=2435 1490 945 812 830 660
cat_boundaries=0 1 2 3 4 5 6
cat_threshold=17530 166020 16 1056 65536 163840
is_linear=0
shrinkage=0.0286803


Tree=72
num_leaves=7
num_cat=0
split_feature=0 0 0 0 0 0
split_gain=2.62526e+12 5.62922e+11 3.92112e+11 2.32611e+11 1.23895e+11 9.73961e+10
threshold=0.96500000000000008 0.60500000000000009 1.425 0.77500000000000013 1.8150000000000002 1.0550000000000004
decision_type=2 2 2 2 2 2
left_child=1 -1 5 -3 -4 -2
right_child=2 3 4 -5 -6 -7
leaf_value=4522.5676539024325 116.4022414120461 1909.1433551078749 -1186.5848609360651 815.44828263422448 -2753.5087609804991 -501.64011317028644
leaf_weight=45 269 251 425 441 46 952
leaf_count=45 269 251 425 441 46 952
internal_value=0 1414.28 -636.648 1212.15 -1339.62 -365.478
internal_weight=0 737 1692 692 471 1221
internal_count=2429 737 1692 692 471 1221
is_linear=0
shrinkage=0.0286803


Tree=73
num_leaves=7
num_cat=6
split_feature=1 1 1 1 1 1
split_gain=7.42217e+12 8.09819e+11 7.29904e+11 6.16053e+10 5.64089e+10 5.42881e+10
threshold=0 1 2 3 4 5
decision_type=1 1 1 1 1 1
left_child=2 5 -1 -4 -3 -2
right_child=1 4 3 -5 -6 -7
leaf_value=3237.9809742355947 -1023.6959185455039 -2673.3820846342178 1680.6315538896361 947.68436069784514 -1688.9927871759126 -366.21457570678751
leaf_weight=274 137 137 397 274 680 530
leaf_count=274 137 137 397 274 680 530
internal_value=0 -1276.19 1960.99 1399.65 -1884.39 -514.386
internal_weight=0 1484 945 671 817 667
internal_count=2429 1484 945 671 817 667
cat_boundaries=0 1 2 3 4 5 6
cat_threshold=17530 166020 80 16394 65536 2048
is_linear=0
shrinkage=0.0286803


Tree=74
num_leaves=7
num_cat=0
split_feature=0 0 0 0 0 0
split_gain=2.39405e+12 5.29477e+11 3.73761e+11 2.11287e+11 1.19937e+11 9.1959e+10
threshold=0.96500000000000008 0.60500000000000009 1.425 0.77500000000000013 1.8150000000000002 1.0550000000000004
decision_type=2 2 2 2 2 2
left_child=1 -1 5 -3 -4 -2
right_child=2 3 4 -5 -6 -7
leaf_value=4365.2825397855549 125.19679235649305 1818.9892251180461 -1143.5431843839265 776.63074200660458 -2685.2387719807998 -475.34676150492709
leaf_weight=45 269 251 425 441 46 952
leaf_count=45 269 251 425 441 46 952
internal_value=0 1350.74 -607.789 1154.71 -1294.11 -343.04
internal_weight=0 737 1692 692 471 1221
internal_count=2429 737 1692 692 471 1221
is_linear=0
shrinkage=0.0286803


Tree=75
num_leaves=7
num_cat=6
split_feature=1 1 1 1 1 1
split_gain=7.22232e+12 7.51794e+11 5.72433e+11 6.0674e+10 5.84863e+10 4.82469e+10
threshold=0 1 2 3 4 5
decision_type=1 1 1 1 1 1
left_child=2 5 -1 -4 -3 -2
right_child=1 4 3 -5 -6 -7
leaf_value=3124.9628575882271 -996.40947530521657 -2606.1317049278641 1741.5923539269252 995.45650176716208 -1625.4763531674703 -358.79295817002259
leaf_weight=270 127 133 406 268 683 538
leaf_count=270 127 133 406 268 683 538
internal_value=0 -1228.88 1966.7 1463.8 -1814.93 -493.521
internal_weight=0 1481 944 674 816 665
internal_count=2425 1481 944 674 816 665
cat_boundaries=0 1 2 3 4 5 6
cat_threshold=17530 166020 80 16394 65536 2048
is_linear=0
shrinkage=0.0286803


Tree=76
num_leaves=8
num_cat=0
split_feature=0 0 0 0 0 0 0
split_gain=2.31233e+12 8.45076e+11 3.40658e+11 1.42328e+11 9.51388e+10 6.80638e+10 6.121e+10
threshold=0.99500000000000011 0.69500000000000006 1.5450000000000002 1.1650000000000003 1.7950000000000002 0.77500000000000013 0.56500000000000006
decision_type=2 2 2 2 2 2 2
left_child=1 6 3 -2 -4 -3 -1
right_child=2 5 4 -5 -6 -7 -8
leaf_value=4943.8129940571989 -85.674210186592546 1356.2315585744861 -1246.6501635905393 -692.75341520050517 -2494.2916730455718 715.48163889625209 3226.0072056065019
leaf_weight=21 550 181 211 752 66 553 91
leaf_count=21 550 181 211 752 66 553 91
internal_value=0 1227.57 -630.613 -436.307 -1543.92 873.487 3548.1
internal_weight=0 846 1579 1302 277 734 112
internal_count=2425 846 1579 1302 277 734 112
is_linear=0
shrinkage=0.0286803


Tree=77
num_leaves=7
num_cat=6
split_feature=1 1 1 1 1 1
split_gain=6.76637e+12 7.00954e+11 5.20637e+11 7.35872e+10 5.76757e+10 4.68656e+10
threshold=0 1 2 3 4 5
decision_type=1 1 1 1 1 1
left_child=2 5 -1 -4 -3 -2
right_child=1 4 3 -5 -6 -7
leaf_value=3009.8793338459941 -974.67576116551425 -2530.0893060648114 1713.7075507816824 935.1848143968075 -1570.6961347468753 -347.1955360707102
leaf_weight=270 127 133 406 268 683 538
leaf_count=270 127 133 406 268 683 538
internal_value=0 -1189.87 1903.2 1422.34 -1755.81 -479.694
internal_weight=0 1481 944 674 816 665
internal_count=2425 1481 944 674 816 665
cat_boundaries=0 1 2 3 4 5 6
cat_threshold=17530 166020 80 16394 65536 2048
is_linear=0
shrinkage=0.0286803


Tree=78
num_leaves=8
num_cat=0
split_feature=0 0 0 0 0 0 0
split_gain=2.38656e+12 6.42265e+11 2.87101e+11 1.31929e+11 1.18867e+11 7.77816e+10 4.96295e+10
threshold=0.96500000000000008 0.70500000000000007 1.5450000000000002 0.60500000000000009 1.1050000000000002 1.8150000000000002 0.77500000000000013
decision_type=2 2 2 2 2 2 2
left_child=1 3 4 -1 -2 -4 -3
right_child=2 6 5 -5 -6 -7 -8
leaf_value=4344.0715782267116 -41.39896864769409 1404.5294263747048 -1229.5336276418498 2489.2401867682506 -604.97193170684409 -2516.9668487171903 802.69823302994439
leaf_weight=48 448 153 216 92 984 47 428
leaf_count=48 448 153 216 92 984 47 428
internal_value=0 1381.38 -588.623 3125.18 -428.659 -1459.61 961.184
internal_weight=0 721 1695 140 1432 263 581
internal_count=2416 721 1695 140 1432 263 581
is_linear=0
shrinkage=0.0286803


Tree=79
num_leaves=7
num_cat=6
split_feature=1 1 1 1 1 1
split_gain=6.43544e+12 7.53971e+11 5.03419e+11 1.03458e+11 1.00174e+11 1.48493e+10
threshold=0 1 2 3 4 5
decision_type=1 1 1 1 1 1
left_child=2 5 -1 -3 -4 -2
right_child=1 3 4 -5 -6 -7
leaf_value=2949.3674805078663 -135.04526341743173 -2564.5964235243268 1695.9700893686518 -1489.6707967481727 843.36876401184907 -452.47713900664871
leaf_weight=264 265 133 409 809 264 272
leaf_count=264 265 133 409 809 264 272
internal_value=0 -1176.3 1847.75 -1666.78 1378.76 -301.163
internal_weight=0 1479 937 942 673 537
internal_count=2416 1479 937 942 673 537
cat_boundaries=0 1 2 3 4 5 6
cat_threshold=17530 163972 80 65536 16394 163840
is_linear=0
shrinkage=0.0286803


Tree=80
num_leaves=8
num_cat=0
split_feature=0 0 0 0 0 0 0
split_gain=2.18383e+12 5.97948e+11 2.78498e+11 1.25128e+11 1.13544e+11 7.55617e+10 4.44591e+10
threshold=0.96500000000000008 0.70500000000000007 1.5450000000000002 0.60500000000000009 1.1050000000000002 1.8150000000000002 0.89500000000000013
decision_type=2 2 2 2 2 2 2
left_child=1 3 4 -1 -2 -4 -3
right_child=2 6 5 -5 -6 -7 -8
leaf_value=4191.1391058460731 -26.918607763286484 1078.1027601556984 -1194.0274720231102 2384.7486751258166 -577.72887231993741 -2462.9557289804748 527.59576771887509
leaf_weight=48 448 410 216 92 984 47 171
leaf_count=48 448 410 216 92 984 47 171
internal_value=0 1321.52 -562.958 3004.08 -405.408 -1420.79 916.077
internal_weight=0 721 1695 140 1432 263 581
internal_count=2416 721 1695 140 1432 263 581
is_linear=0
shrinkage=0.0286803


Tree=81
num_leaves=7
num_cat=6
split_feature=1 1 1 1 1 1
split_gain=6.04269e+12 7.5258e+11 6.40185e+11 1.57448e+11 1.33147e+11 1.07845e+10
threshold=0 1 2 3 4 5
decision_type=1 1 1 1 1 1
left_child=2 5 -1 -4 -3 -2
right_child=1 4 3 -5 -6 -7
leaf_value=3646.6175069649098 -18.59965768622089 -2533.2995997648591 809.54294312779371 1774.8442899981139 -1404.3170679505661 -321.85360981244247
leaf_weight=137 138 139 270 536 802 416
leaf_count=137 138 139 270 536 802 416
internal_value=0 -1101.41 1817.2 1465.36 -1595.97 -247.983
internal_weight=0 1495 943 806 941 554
internal_count=2438 1495 943 806 941 554
cat_boundaries=0 1 2 3 4 5 6
cat_threshold=17530 163972 16 1056 65536 131072
is_linear=0
shrinkage=0.0286803


Tree=82
num_leaves=8
num_cat=0
split_feature=0 0 0 0 0 0 0
split_gain=1.99623e+12 5.99543e+11 2.90436e+11 1.23663e+11 1.01009e+11 8.343e+10 1.86356e+10
threshold=1.0150000000000003 0.69500000000000006 1.7450000000000003 0.56500000000000006 1.2350000000000001 0.89500000000000013 1.8150000000000002
decision_type=2 2 2 2 2 2 2
left_child=1 3 4 -1 -2 -3 -4
right_child=2 5 6 -5 -6 -7 -8
leaf_value=4851.4700857818934 -267.09351849088711 1080.4683199236008 -1685.7724129439432 2542.3279645815019 -746.46657175204246 485.62637195882274 -2531.3660747547492
leaf_weight=24 740 435 36 93 707 350 53
leaf_count=24 740 435 36 93 707 350 53
internal_value=0 1100.71 -599.122 3016 -501.314 815.252 -2189.33
internal_weight=0 902 1536 117 1447 785 89
internal_count=2438 902 1536 117 1447 785 89
is_linear=0
shrinkage=0.0286803


Tree=83
num_leaves=7
num_cat=6
split_feature=1 1 1 1 1 1
split_gain=5.65946e+12 7.06076e+11 5.97533e+11 1.63691e+11 1.278e+11 7.92218e+09
threshold=0 1 2 3 4 5
decision_type=1 1 1 1 1 1
left_child=2 5 -1 -4 -3 -2
right_child=1 4 3 -5 -6 -7
leaf_value=3525.8018059170117 -432.59590741989047 -2460.5318746106573 758.43586976110112 1730.4598188023406 -1358.508006575883 -167.81071327317133
leaf_weight=137 137 139 270 536 802 417
leaf_count=137 137 139 270 536 802 417
internal_value=0 -1066.43 1758.12 1418.13 -1545.46 -239.799
internal_weight=0 1495 943 806 941 554
internal_count=2438 1495 943 806 941 554
cat_boundaries=0 1 2 3 4 5 6
cat_threshold=17530 163972 16 1056 65536 128
is_linear=0
shrinkage=0.0286803


Tree=84
num_leaves=8
num_cat=0
split_feature=0 0 0 0 0 0 0
split_gain=1.76029e+12 5.16298e+11 2.26389e+11 2.21549e+11 5.73503e+10 4.79025e+10 1.65588e+10
threshold=1.0150000000000003 0.60500000000000009 1.5650000000000002 0.77500000000000013 1.7650000000000003 1.1050000000000002 0.56500000000000006
decision_type=2 2 2 2 2 2 2
left_child=1 6 5 -3 -4 -2 -1
right_child=2 3 4 -5 -6 -7 -8
leaf_value=4300.2721013406463 -141.25255186220761 1527.4832717269039 -1125.9086091442136 504.92429700766183 -2052.0358737056708 -572.08519981017685 3240.2767172098083
leaf_weight=27 270 244 176 610 80 993 22
leaf_count=27 270 244 176 610 80 993 22
internal_value=0 961.355 -637.618 797.084 -1415.32 -479.983 3824.36
internal_weight=0 903 1519 854 256 1263 49
internal_count=2422 903 1519 854 256 1263 49
is_linear=0
shrinkage=0.0286803


Tree=85
num_leaves=7
num_cat=6
split_feature=1 1 1 1 1 1
split_gain=4.81013e+12 6.33972e+11 4.95721e+11 1.13833e+11 9.29565e+10 2.09649e+10
threshold=0 1 2 3 4 5
decision_type=1 1 1 1 1 1
left_child=2 5 -1 -4 -3 -2
right_child=1 4 3 -5 -6 -7
leaf_value=2629.7370249021701 -60.017294152409519 -1176.1098615539418 1426.355623360145 587.1856590747567 -1890.8192605749066 -425.69661688028623
leaf_weight=264 264 539 405 271 410 269
leaf_count=264 264 539 405 271 410 269
internal_value=0 -1055.66 1555.25 1103.41 -1501.39 -249.013
internal_weight=0 1482 940 676 949 533
internal_count=2422 1482 940 676 949 533
cat_boundaries=0 1 2 3 4 5 6
cat_threshold=17530 163972 80 16394 6657 131076
is_linear=0
shrinkage=0.0286803


Tree=86
num_leaves=8
num_cat=0
split_feature=0 0 0 0 0 0 0
split_gain=1.61942e+12 4.83376e+11 2.2008e+11 1.99044e+11 5.57821e+10 4.6253e+10 1.55815e+10
threshold=1.0150000000000003 0.60500000000000009 1.5650000000000002 0.77500000000000013 1.7650000000000003 1.1050000000000002 0.56500000000000006
decision_type=2 2 2 2 2 2 2
left_child=1 6 5 -3 -4 -2 -1
right_child=2 3 4 -5 -6 -7 -8
leaf_value=4154.7392601375459 -122.52191077327362 1456.2245830285124 -1092.1518966700824 486.99303314260283 -2005.5296525016604 -545.87158170811756 3126.4986463012615
leaf_weight=27 270 244 176 610 80 993 22
leaf_count=27 270 244 176 610 80 993 22
internal_value=0 922.863 -610.792 763.916 -1377.58 -455.369 3693.08
internal_weight=0 903 1519 854 256 1263 49
internal_count=2422 903 1519 854 256 1263 49
is_linear=0
shrinkage=0.0286803


Tree=87
num_leaves=7
num_cat=6
split_feature=1 1 1 1 1 1
split_gain=4.42635e+12 5.2622e+11 4.9004e+11 1.72362e+11 4.05139e+10 7.397e+09
threshold=0 1 2 3 4 5
decision_type=1 1 1 1 1 1
left_child=2 5 -1 -4 -3 -2
right_child=1 4 3 -5 -6 -7
leaf_value=3077.7603210670577 -322.56646435126146 -2182.8453649833186 537.27420661896838 1482.8423601310101 -1360.7360923122476 -559.50252522655069
leaf_weight=134 412 132 279 538 677 283
leaf_count=134 412 132 279 538 677 283
internal_value=0 -1020.37 1468.33 1170.34 -1519.89 -425.613
internal_weight=0 1504 951 817 809 695
internal_count=2455 1504 951 817 809 695
cat_boundaries=0 1 2 3 4 5 6
cat_threshold=17530 166020 16 1056 65536 32900
is_linear=0
shrinkage=0.0286803


Tree=88
num_leaves=8
num_cat=0
split_feature=0 0 0 0 0 0 0
split_gain=1.39667e+12 5.21235e+11 2.51686e+11 1.09965e+11 4.30358e+10 3.15449e+10 1.12489e+10
threshold=1.0150000000000003 0.69500000000000006 1.7650000000000003 1.1050000000000002 0.89500000000000013 0.60500000000000009 1.8150000000000002
decision_type=2 2 2 2 2 2 2
left_child=1 5 3 -2 -3 -1 -4
right_child=2 4 6 -5 -6 -7 -8
leaf_value=3155.4464416645824 27.283596272957446 744.06140993048029 -1647.2642226875203 -615.09631315477577 318.41077730616746 2208.482321307873 -2371.2246031692639
leaf_weight=46 269 454 26 1184 343 78 55
leaf_count=46 269 454 26 1184 343 78 55
internal_value=0 830.001 -582.908 -496.17 560.877 2559.78 -2138.84
internal_weight=0 921 1534 1453 797 124 81
internal_count=2455 921 1534 1453 797 124 81
is_linear=0
shrinkage=0.0286803


Tree=89
num_leaves=7
num_cat=6
split_feature=1 1 1 1 1 1
split_gain=4.1506e+12 4.91158e+11 4.56415e+11 1.76055e+11 4.00768e+10 8.86867e+09
threshold=0 1 2 3 4 5
decision_type=1 1 1 1 1 1
left_child=2 5 -1 -4 -3 -2
right_child=1 4 3 -5 -6 -7
leaf_value=2977.1109792066131 -304.37086784892466 -2118.1614664365061 500.24858279762066 1449.8094598774831 -1313.7473123710456 -553.01137759963819
leaf_weight=134 412 132 279 538 677 283
leaf_count=134 412 132 279 538 677 283
internal_value=0 -986.658 1423.28 1135.51 -1469.26 -412.024
internal_weight=0 1504 951 817 809 695
internal_count=2455 1504 951 817 809 695
cat_boundaries=0 1 2 3 4 5 6
cat_threshold=17530 166020 16 1056 65536 32900
is_linear=0
shrinkage=0.0286803


Tree=90
num_leaves=8
num_cat=0
split_feature=0 0 0 0 0 0 0
split_gain=1.19287e+12 2.28602e+11 2.16759e+11 1.01238e+11 4.21585e+10 4.0755e+10 1.74085e+10
threshold=1.0050000000000001 0.75500000000000012 1.7450000000000003 1.2350000000000001 0.89500000000000013 0.60500000000000009 1.9500000000000002
decision_type=2 2 2 2 2 2 2
left_child=1 5 3 -2 -3 -1 -4
right_child=2 4 6 -5 -6 -7 -8
leaf_value=2399.6836164465562 -184.81613017554284 769.80023675760867 -1649.0747101241891 -659.80001406715394 301.02813928975621 1414.3002239387029 -2593.7804326370142
leaf_weight=42 763 327 68 715 305 194 21
leaf_count=42 763 327 68 715 305 194 21
internal_value=0 827.995 -497.37 -414.595 543.573 1589.67 -1871.98
internal_weight=0 868 1567 1478 632 236 89
internal_count=2435 868 1567 1478 632 236 89
is_linear=0
shrinkage=0.0286803


Tree=91
num_leaves=7
num_cat=6
split_feature=1 1 1 1 1 1
split_gain=4.71941e+12 6.75709e+11 2.90588e+11 8.98702e+10 7.20184e+10 7.06596e+10
threshold=0 1 2 3 4 5
decision_type=1 1 1 1 1 1
left_child=2 5 -1 -4 -3 -2
right_child=1 4 3 -5 -6 -7
leaf_value=3071.1355177246965 62.866656241617711 -2240.6676238098021 636.52403451013242 1649.9910139592018 -1314.2146971638535 -504.87506124040596
leaf_weight=130 272 137 133 544 678 541
leaf_count=130 272 137 133 544 678 541
internal_value=0 -912.097 1756.52 1463.05 -1495.22 -316.474
internal_weight=0 1628 807 677 815 813
internal_count=2435 1628 807 677 815 813
cat_boundaries=0 1 2 3 4 5 6
cat_threshold=16506 167044 16 32 65536 1028
is_linear=0
shrinkage=0.0286803


Tree=92
num_leaves=8
num_cat=0
split_feature=0 0 0 0 0 0 0
split_gain=1.10176e+12 2.10581e+11 2.10231e+11 9.70556e+10 3.96835e+10 3.66252e+10 1.71073e+10
threshold=1.0050000000000001 0.75500000000000012 1.7450000000000003 1.1950000000000001 0.60500000000000009 0.89500000000000013 1.9500000000000002
decision_type=2 2 2 2 2 2 2
left_child=1 4 3 -2 -1 -3 -4
right_child=2 5 6 -5 -6 -7 -8
leaf_value=2326.6783158718949 -130.30494564196982 734.22510166322468 -1610.1867500419623 -599.26944028997514 1354.3349012552571 297.2982252108248 -2546.6837843045387
leaf_weight=42 641 327 68 837 194 305 21
leaf_count=42 641 327 68 837 194 305 21
internal_value=0 796.347 -477.401 -395.882 1527.38 523.366 -1831.16
internal_weight=0 868 1567 1478 236 632 89
internal_count=2435 868 1567 1478 236 632 89
is_linear=0
shrinkage=0.0286803


Tree=93
num_leaves=8
num_cat=7
split_feature=1 1 1 1 1 1 1
split_gain=4.01557e+12 5.32511e+11 4.46959e+11 1.43332e+11 7.92884e+10 4.71124e+10 2.96851e+10
threshold=0 1 2 3 4 5 6
decision_type=1 1 1 1 1 1 1
left_child=2 6 3 -1 -3 -4 -2
right_child=1 4 5 -5 -6 -7 -8
leaf_value=2937.3886296685077 -137.1094817184065 -2176.0498021640487 1148.4094305558135 1607.1905749794923 -1229.0534487195919 442.63411167997816 -535.0664288926929
leaf_weight=143 404 130 137 406 690 278 266
leaf_count=143 404 130 137 406 690 278 266
internal_value=0 -912.951 1452.06 2000.02 -1403.6 697.164 -300.65
internal_weight=0 1490 964 549 820 415 670
internal_count=2454 1490 964 549 820 415 670
cat_boundaries=0 1 2 3 4 5 6 7
cat_threshold=17530 166020 16466 16 65536 8 163844
is_linear=0
shrinkage=0.0286803


Tree=94
num_leaves=8
num_cat=0
split_feature=0 0 0 0 0 0 0
split_gain=1.23231e+12 3.98137e+11 2.56618e+11 1.10688e+11 7.15301e+10 3.8653e+10 3.59383e+10
threshold=0.99500000000000011 0.69500000000000006 1.5650000000000002 0.56500000000000006 1.7450000000000003 1.1050000000000002 0.76500000000000012
decision_type=2 2 2 2 2 2 2
left_child=1 3 5 -1 -4 -2 -3
right_child=2 6 4 -5 -6 -7 -8
leaf_value=4222.5942222141048 -14.704912522819525 1041.2162132975805 -924.99908584313482 2009.6228530322412 -1915.2679497735476 -373.46747866090413 546.53152512816916
leaf_weight=23 327 153 180 97 90 1010 574
leaf_count=23 327 153 180 97 90 1010 574
internal_value=0 903.268 -448.59 2433.78 -1255.09 -285.722 650.64
internal_weight=0 847 1607 120 270 1337 727
internal_count=2454 847 1607 120 270 1337 727
is_linear=0
shrinkage=0.0286803


Tree=95
num_leaves=7
num_cat=6
split_feature=1 1 1 1 1 1
split_gain=3.78284e+12 6.6961e+11 3.05655e+11 9.71914e+10 7.6483e+10 6.08805e+10
threshold=0 1 2 3 4 5
decision_type=1 1 1 1 1 1
left_child=2 5 -1 -4 -3 -2
right_child=1 4 3 -5 -6 -7
leaf_value=2840.9652662506819 158.79911599619459 -2113.5822264659814 496.85534849924215 1478.7759149799572 -1188.4750081647171 -364.61838257641261
leaf_weight=143 270 130 139 543 690 539
leaf_count=143 270 130 139 543 690 539
internal_value=0 -783.127 1588.58 1288.72 -1358.84 -190.124
internal_weight=0 1629 825 682 820 809
internal_count=2454 1629 825 682 820 809
cat_boundaries=0 1 2 3 4 5 6
cat_threshold=16506 167044 16 32 65536 1028
is_linear=0
shrinkage=0.0286803


Tree=96
num_leaves=8
num_cat=0
split_feature=0 0 0 0 0 0 0
split_gain=9.67334e+11 3.7822e+11 2.15994e+11 1.05329e+11 5.61083e+10 3.47929e+10 1.55929e+10
threshold=1.0150000000000003 0.60500000000000009 1.5450000000000002 0.70500000000000007 1.7650000000000003 1.2050000000000003 0.56500000000000006
decision_type=2 2 2 2 2 2 2
left_child=1 6 5 -3 -4 -2 -1
right_child=2 3 4 -5 -6 -7 -8
leaf_value=3817.7682390079544 -135.84607144298818 1480.2037697209905 -922.17616055258748 486.68100446286127 -1840.1737652065199 -438.97539945241061 2749.7478237448795
leaf_weight=23 630 99 203 774 75 616 22
leaf_count=23 630 99 203 774 75 616 22
internal_value=0 731.519 -446.986 599.349 -1169.84 -285.708 3295.63
internal_weight=0 918 1524 873 278 1246 45
internal_count=2442 918 1524 873 278 1246 45
is_linear=0
shrinkage=0.0286803


Tree=97
num_leaves=7
num_cat=6
split_feature=1 1 1 1 1 1
split_gain=3.66827e+12 5.27682e+11 1.67836e+11 9.86692e+10 5.63408e+10 2.77653e+10
threshold=0 1 2 3 4 5
decision_type=1 1 1 1 1 1
left_child=2 5 -1 -3 -4 -2
right_child=1 3 4 -5 -6 -7
leaf_value=2575.347787061844 -22.250741457348493 -917.57970133653907 633.74104873735723 -1604.4630840021957 1480.8160958262577 -391.65931885819992
leaf_weight=135 410 535 133 406 542 281
leaf_count=135 410 535 133 406 542 281
internal_value=0 -786.148 1562.76 -1227.69 1325.6 -175.918
internal_weight=0 1632 810 941 675 691
internal_count=2442 1632 810 941 675 691
cat_boundaries=0 1 2 3 4 5 6
cat_threshold=16506 164996 16 6657 32 33796
is_linear=0
shrinkage=0.0286803


Tree=98
num_leaves=8
num_cat=0
split_feature=0 0 0 0 0 0 0
split_gain=8.9778e+11 3.57139e+11 2.08856e+11 9.77893e+10 5.42724e+10 3.41372e+10 1.47137e+10
threshold=1.0150000000000003 0.60500000000000009 1.5450000000000002 0.77500000000000013 1.7650000000000003 1.1050000000000002 0.56500000000000006
decision_type=2 2 2 2 2 2 2
left_child=1 6 5 -3 -4 -2 -1
right_child=2 3 4 -5 -6 -7 -8
leaf_value=3703.8479811626275 11.669034759253014 1053.0856534249604 -897.56339691620235 383.2150970901132 -1800.4172908380601 -351.25824920031619 2666.3745256393418
leaf_weight=23 273 252 203 621 75 973 22
leaf_count=23 273 252 203 621 75 973 22
internal_value=0 705.014 -430.332 576.58 -1141.14 -271.74 3196.64
internal_weight=0 918 1524 873 278 1246 45
internal_count=2442 918 1524 873 278 1246 45
is_linear=0
shrinkage=0.0286803


Tree=99
num_leaves=7
num_cat=6
split_feature=1 1 1 1 1 1
split_gain=3.1917e+12 4.82629e+11 1.60407e+11 8.04829e+10 5.23387e+10 1.86213e+10
threshold=0 1 2 3 4 5
decision_type=1 1 1 1 1 1
left_child=2 5 -1 -3 -4 -2
right_child=1 3 4 -5 -6 -7
leaf_value=2426.5872760086791 139.93908050568561 -1856.4333732261728 591.65493354708508 -1003.8138090717891 1374.2349016214314 -221.30595263026157
leaf_weight=135 144 140 142 825 540 546
leaf_count=135 144 140 142 825 540 546
internal_value=0 -731.619 1448.14 -1145.28 1222.2 -144.994
internal_weight=0 1655 817 965 682 690
internal_count=2472 1655 817 965 682 690
cat_boundaries=0 1 2 3 4 5 6
cat_threshold=16506 164996 16 65536 32 1024
is_linear=0
shrinkage=0.0286803


end of trees

feature_importances:
price=348
region=274

parameters:
[boosting: gbdt]
[objective: regression]
[metric: mape]
[tree_learner: serial]
[device_type: cpu]
[data: ]
[valid: ]
[num_iterations: 100]
[learning_rate: 0.0286803]
[num_leaves: 8]
[num_threads: 0]
[deterministic: 1]
[force_col_wise: 0]
[force_row_wise: 0]
[histogram_pool_size: -1]
[max_depth: 3]
[min_data_in_leaf: 20]
[min_sum_hessian_in_leaf: 0.001]
[bagging_fraction: 0.863462]
[pos_bagging_fraction: 1]
[neg_bagging_fraction: 1]
[bagging_freq: 3]
[bagging_seed: 3]
[feature_fraction: 0.130834]
[feature_fraction_bynode: 1]
[feature_fraction_seed: 2]
[extra_trees: 0]
[extra_seed: 3265]
[early_stopping_round: 0]
[first_metric_only: 1]
[max_delta_step: 0]
[lambda_l1: 0.013644]
[lambda_l2: 2.76951e-06]
[linear_lambda: 0]
[min_gain_to_split: 0]
[drop_rate: 0.1]
[max_drop: 50]
[skip_drop: 0.5]
[xgboost_dart_mode: 0]
[uniform_drop: 0]
[drop_seed: 23075]
[top_rate: 0.2]
[other_rate: 0.1]
[min_data_per_group: 100]
[max_cat_threshold: 32]
[cat_l2: 10]
[cat_smooth: 10]
[max_cat_to_onehot: 4]
[top_k: 20]
[monotone_constraints: -1,0]
[monotone_constraints_method: advanced]
[monotone_penalty: 0]
[feature_contri: ]
[forcedsplits_filename: ]
[refit_decay_rate: 0.9]
[cegb_tradeoff: 1]
[cegb_penalty_split: 0]
[cegb_penalty_feature_lazy: ]
[cegb_penalty_feature_coupled: ]
[path_smooth: 0]
[interaction_constraints: ]
[verbosity: -1]
[saved_feature_importance_type: 0]
[linear_tree: 0]
[max_bin: 101]
[max_bin_by_feature: ]
[min_data_in_bin: 3]
[bin_construct_sample_cnt: 200000]
[data_random_seed: 440]
[is_enable_sparse: 1]
[enable_bundle: 1]
[use_missing: 1]
[zero_as_missing: 0]
[feature_pre_filter: 1]
[pre_partition: 0]
[two_round: 0]
[header: 0]
[label_column: ]
[weight_column: ]
[group_column: ]
[ignore_column: ]
[categorical_feature: 1]
[forcedbins_filename: ]
[precise_float_parser: 0]
[objective_seed: 32363]
[num_class: 1]
[is_unbalance: 0]
[scale_pos_weight: 1]
[sigmoid: 1]
[boost_from_average: 1]
[reg_sqrt: 0]
[alpha: 0.9]
[fair_c: 1]
[poisson_max_delta_step: 0.7]
[tweedie_variance_power: 1.5]
[lambdarank_truncation_level: 30]
[lambdarank_norm: 1]
[label_gain: ]
[eval_at: ]
[multi_error_top_k: 1]
[auc_mu_weights: ]
[num_machines: 1]
[local_listen_port: 12400]
[time_out: 120]
[machine_list_filename: ]
[machines: ]
[gpu_platform_id: -1]
[gpu_device_id: -1]
[gpu_use_dp: 0]
[num_gpu: 1]

end of parameters

pandas_categorical:[["Atlanta", "BaltimoreWashington", "Boston", "Chicago", "DallasFtWorth", "Denver", "Houston", "MiamiFtLauderdale", "NorthernNewEngland", "Philadelphia", "PhoenixTucson", "Portland", "Sacramento", "SanDiego", "SanFrancisco", "Seattle", "Tampa", "WestTexNewMexico"]]
